2708 100
0 0.5307579 0.5957023 0.13603473 0.5700021 0.06030851 -0.50341046 -0.36054328 0.32549775 -0.33185956 -0.00092132634 -0.46418294 0.22840132 0.0014875454 0.80297554 0.19372478 0.1032549 -0.45420337 0.28253767 0.74965084 -0.117693365 0.26996672 1.0647702 0.577504 0.8588355 0.64721525 0.8765509 -0.40828604 -0.5167725 0.23377213 -0.4135049 0.15331475 -0.49665245 -0.16469269 0.097916245 -0.12615237 0.044990696 0.8586669 -0.41067335 0.0988237 0.8262206 0.41378087 -0.42083985 -0.04168602 -0.62305653 0.24815579 0.57915235 0.41967046 0.76488745 -0.19930203 -0.66020364 0.6230207 -0.19971585 0.81272805 -0.28677994 0.31929383 0.59170854 -0.11291146 -0.91648465 0.252751 0.40455526 0.095482126 -0.6256338 1.4390068 -0.34799752 0.05689615 0.08672775 -0.43718696 0.47227368 -0.18345766 -0.039777886 -0.70743257 0.411551 -0.8348925 1.0229018 -0.6241511 0.4254427 -0.29087618 1.427802 -0.06281697 -0.278875 0.21022153 0.19002542 0.8478046 -0.7256464 -0.44698885 -0.3006877 0.7614367 0.85538673 -0.6570793 -0.10959541 0.46180588 -0.7834593 -0.3666412 0.028781341 -0.12411593 0.4643726 -1.034441 0.5225647 -0.15916283 -0.4664944 
1 0.027331414 0.72984374 -0.49162036 -0.4485083 -0.44996497 -0.5557064 -0.44752434 -0.3490977 -0.29609475 -0.0011534459 0.82936066 -0.36189756 0.23252764 1.4361008 0.92186546 -0.868741 -0.8895831 0.038753092 -0.078416705 -0.8079274 1.2065951 -0.24656428 0.24601094 -0.7246618 0.36891636 -0.25452238 1.1059493 0.08604123 -0.3051589 -0.87873435 1.476266 -0.6144674 -0.28318936 0.22798358 1.3861158 0.50418884 -0.33171216 -0.33253607 0.13755023 0.36953986 0.08260425 0.12838742 -0.5041169 -0.6406592 0.17957707 0.19040748 0.83151084 -0.22014627 0.46443108 0.41397646 0.10011471 0.016532963 0.011478681 -0.5244496 0.042569924 0.6537211 -0.584683 1.089212 -1.2405794 -0.49495202 0.088886365 -0.09395358 0.46670875 0.46940887 -0.72487336 -0.508071 -0.32392415 0.6320488 0.5404305 0.0504286 0.38782817 0.07219829 -0.79155064 0.25899386 -0.8481957 0.17183489 0.68792206 0.11313599 -0.7069231 -0.13416608 -0.19173308 0.71091926 -0.32158852 -0.60637534 0.34822264 -0.036052573 0.6332363 -0.4474102 -0.34073555 -0.0834976 -0.7298619 0.24166173 -0.11910181 0.2619833 0.73796284 0.4930974 0.492027 -0.09598655 -0.22771491 0.91170853 
2 -0.29642874 0.5473543 -0.5630772 -0.35786888 -0.29268783 -0.32278183 -0.38429472 0.053773236 -0.4234525 0.27377814 0.77488625 -0.22971128 0.25569358 1.1583277 0.5960941 -0.6215683 -0.533986 -0.12807845 0.07389199 -0.96867836 0.39555362 0.45206547 0.1914576 -0.5207773 0.34543604 -0.039331887 0.18310273 -0.13925979 -0.28578493 -0.6257923 0.7850194 -0.15273772 -0.107650734 0.05409047 0.5431258 0.6665613 -0.20823006 -0.07510619 0.06836378 0.3486585 0.1775041 0.18941845 -0.5455828 -0.73928535 0.14337923 0.15900187 0.68274957 0.037283808 -0.007962163 0.07475848 0.51252663 -0.018599046 0.23531546 -0.2195125 0.09248731 0.48444745 -0.48105395 0.71842974 -0.6267224 -0.24432974 -0.28305942 -0.06337692 -0.19263989 0.32983157 -0.5156471 -0.3581887 -0.32273102 0.43146998 0.37667254 0.34834918 0.28639272 -0.066271745 -0.5503142 0.16284053 -0.21626785 -0.06853405 -0.015507192 0.23459731 -0.75098586 -0.13406938 -0.24440162 0.38097566 -0.29914027 -0.35976183 0.33394575 -0.25118434 0.52619046 -0.44995055 -0.15889533 0.058443155 -0.5719958 0.036515534 -0.4935363 0.3707805 0.98363173 0.45607504 0.17409141 -0.13740946 -0.22125214 0.43351963 
3 0.2838579 -0.29723045 -0.1079472 0.53830284 0.4338006 0.34336558 -0.5426073 0.28364348 0.42433864 0.22897734 -0.36515835 -0.58564264 -0.60770106 -0.94206655 -1.134197 -0.6912697 -1.0773498 -0.7692043 -0.7461043 -0.07944134 -0.035423975 -0.039206702 -0.43022102 0.16413496 0.1221788 -0.29151952 -0.3499513 0.091614515 0.76506525 -1.1862836 0.21147144 0.0137159545 -1.1917014 1.3102455 -0.2702204 0.5699722 0.72702587 -0.96033144 0.4735116 0.6587773 -0.7313765 0.26233235 0.27964324 -1.812339 -0.14885683 -1.1585163 0.22168696 -0.09134909 -0.8057246 -0.10445895 -0.34711716 -1.1847336 -0.026311569 -0.239448 -0.73496455 1.426943 0.7255251 1.4787661 0.26779136 0.16617244 0.50783443 0.39878997 -0.29117855 0.07137627 0.0027376595 0.77209 0.1326088 0.0008747866 -0.1803116 0.54575294 -0.67544943 -0.48402268 -0.22842453 0.76674026 -1.0144339 -0.46626115 0.61708224 0.36601382 -0.83439404 -0.52815497 0.8068562 0.69165844 0.032638356 0.063580304 0.8417093 -0.4368733 0.3368304 -1.0535549 -1.4512279 0.59326357 -0.31434003 -0.074412055 -1.0797788 0.5272455 0.1530339 -1.0253334 0.7072931 -0.5709281 -1.1805879 0.3537209 
4 -0.27898064 0.25393355 0.44956717 -0.38295186 0.5169903 0.24059083 0.55220425 -0.3938415 -0.60699034 -0.3280379 0.41290838 -0.028925896 -0.004381011 0.057551228 -0.59662753 0.18700936 0.22792388 -0.13110055 -1.1793545 -0.77699304 -0.41399974 -0.039214738 0.5830617 -0.1823971 -1.5941197 -0.08841875 0.9314742 0.8590096 -0.8360898 -0.5875941 -0.10678177 0.18444851 0.44275582 0.13212326 0.33303875 0.26458734 -0.8495055 -0.46744928 0.20682533 0.8877918 -0.6776579 0.60727257 0.067280166 -0.8508589 -0.31627765 0.64696044 -0.23617695 -0.72619885 -0.20982401 0.012865588 0.14254925 -0.49596116 0.04565914 0.21890892 -0.26852426 0.13381563 0.07346402 -0.29709333 -0.093682714 0.2916148 0.47835475 0.21296456 0.58552945 0.25596404 -0.5115264 -0.20483868 0.073716894 -0.55449635 -0.3049861 0.41340873 -0.4200307 -0.40922162 0.1730028 -0.10827885 -0.06851716 0.15401872 0.14052488 -0.47488838 -0.1686232 -0.12380456 0.22466487 0.032828666 -0.8652906 -0.08277814 -0.93563426 0.76704895 0.1901431 -0.57428503 -0.88612705 0.60161376 -0.5123924 0.17267522 -0.19100115 1.1319253 -0.48205057 -0.49486008 -1.0422812 -0.42015156 0.77284753 0.11992244 
5 0.3293934 0.3604259 0.22389774 -0.3371369 0.5638131 0.857198 -0.6832731 -1.1173517 -0.014175416 -0.00679596 -0.6066577 0.1620318 0.8301308 0.66177803 0.38678914 -0.38422146 -0.15146011 0.99281335 0.5609679 0.34848627 0.59720147 -0.7946911 0.35377875 0.2836971 -0.4930827 -0.0062838076 1.390279 0.4903577 -0.21533522 -0.86927927 -0.34350002 0.49475035 -0.6696926 0.62507164 -0.22041716 0.50494957 -0.32253 -0.98209107 0.66535014 0.5278107 0.67865294 -0.860577 -0.20017225 -1.057621 0.35102078 -0.13167426 -0.07630281 0.3269239 -0.13902096 0.00043779227 1.1800319 -0.24354622 -0.2757313 -0.29346222 -0.6223135 -0.039419387 0.4503687 -0.4326939 -0.27533183 -0.42602488 0.29684 0.096054345 -0.16525479 -0.6051322 -0.14769147 0.5543478 0.18535759 0.48639256 -1.3636172 -0.1395117 1.6439676 -1.5247042 0.17033815 0.41748148 -0.3630068 -0.36146468 0.413305 -0.6136777 -0.110786244 -0.45564523 0.29614305 0.07522804 0.14621732 -1.416485 -0.21233521 0.3511839 -0.06849585 0.11392213 0.1867632 -0.31208968 -0.48240623 -0.39282113 0.6265949 1.0434265 -0.3792583 0.010946569 1.0270698 0.37933496 0.10188041 0.28994906 
6 0.28737155 0.34435526 0.43869683 -0.00050276 0.9421616 0.0495013 -0.5525401 -0.03234467 0.55652523 0.5238209 0.6633492 0.24467319 -0.42757443 0.3278686 -0.19897003 -0.34045514 -0.327742 -0.5556563 0.019903831 0.09533636 -0.44909266 0.09386177 0.43610573 -0.7672653 0.15995587 0.15224761 0.084451884 -0.47072068 0.27618226 0.18722175 0.17720284 -0.54010254 -0.43524927 -0.010082675 0.2151886 -0.08055845 -0.9964208 -0.02256957 0.07829528 0.33009508 0.43495816 -0.054223165 1.1436806 -0.7409999 0.3751351 -0.629444 -0.9517413 0.16685575 -0.18151744 0.12792143 1.017856 -0.063494295 0.4549563 0.13430655 -0.036073808 0.28279155 -0.20951986 0.38004392 -0.9898995 0.54587513 0.5191533 0.09988855 -0.016509853 0.19113444 0.3140826 0.09520437 0.1343326 -0.09581352 -0.35187998 -0.62655133 -0.22283359 -0.124095485 -0.17689258 -0.22657953 -0.29907832 -0.04152322 0.5576918 0.1716557 -0.0582659 0.4533629 -0.115690134 -0.22608013 0.38919502 -0.07151699 -1.0078529 -0.04259499 0.517933 0.39980775 -0.49999893 0.13301647 0.039606094 0.06338875 -0.4234032 -0.3722774 0.18617243 -0.026977114 -0.34045637 -0.07526036 0.076439425 -0.054231048 
7 0.64330393 0.8137201 -0.7786037 1.3800918 0.5941056 0.8343758 -0.3148644 -0.67327964 0.0059319553 0.90006196 0.33621678 0.10293883 0.02285441 -0.56394863 -1.1417787 -0.056471985 -1.1834872 0.08334076 0.45878822 -0.9723826 0.29940158 -0.46359247 -0.92203426 -0.8599249 -0.5446575 -0.82345736 -0.19083458 0.6645845 -0.0022620142 -0.790182 -0.03264647 -0.486895 -0.7607269 0.35246354 -0.08576181 1.1362994 0.14310141 -1.143064 0.7353068 1.1519188 -0.08880162 1.3755854 0.943278 -1.0475875 -0.44711372 -0.6924872 -0.47879094 -0.030403707 -0.3270354 -0.9607465 0.34627718 -0.74834406 -0.17980865 -0.77183294 -1.2165455 1.4670871 0.6009036 0.024295643 -0.2091714 -0.22245453 0.41305026 0.1420017 0.093892656 0.6804883 -0.6666698 0.76565266 0.59060556 -0.2671833 -0.6153035 0.85688454 -0.18356259 -0.6235438 -1.1637123 -0.2677702 -0.52826035 0.3962587 -0.27165926 0.92892456 -1.2354527 0.82405055 0.7026941 0.16642386 0.6428962 0.51166743 0.63475424 0.17091845 0.15837334 -0.9890185 -0.41996065 0.76513195 -0.7326588 0.7806576 -0.090118565 0.2050496 -0.3173375 -0.31395918 1.1625994 -0.4369768 -0.36103892 0.22241007 
8 0.7874834 0.28814626 -0.2727888 -0.23688972 0.3169453 -0.14842506 0.3451237 -1.0052727 -0.07908845 0.305572 -0.15480718 -0.5233578 1.0024405 0.0095565235 -0.41380486 -1.0592002 0.18569675 -0.4784644 -0.42523918 -0.23161203 -0.024888678 0.1745428 0.47723395 -0.35987073 -0.2919746 0.06871573 -0.033458892 0.28614026 0.74034554 -0.04029652 -0.2766035 -0.25830334 -0.28105882 0.5279791 0.7501384 0.79330087 -0.106780894 -0.15789029 -0.34068573 0.34873945 -0.26674747 0.110125415 -0.32333118 -0.69124955 1.0374614 0.035391204 -0.28493407 -0.22566044 -0.40858757 -0.6096131 0.83240485 0.03468761 0.68803537 -0.39918986 -0.5780991 0.09158642 -0.061513983 0.10705415 0.2976138 0.116977364 -0.24583273 -0.6009662 0.2489852 0.07410839 -0.85238725 0.6606798 0.004328242 -0.92046356 0.28948507 0.13861185 -0.090558775 0.33679193 -0.37064058 1.0239698 0.35630155 0.27699414 0.56867486 -0.10566955 -0.83114004 -0.26698333 -0.46168116 0.4692583 0.20242402 0.12867162 -0.33519864 0.48488352 -0.05868963 -0.06777054 -0.45364252 -0.26747933 -0.8042543 -0.30753797 -0.580613 0.20467755 1.3238956 -0.34051982 0.31952783 0.14816919 -0.5298068 -0.09184784 
9 0.1030094 -0.27791902 0.77643573 0.68965435 -0.78613454 -0.31570804 0.16193977 -0.5773487 0.10817257 -0.4286061 0.08165691 0.8930228 0.23485282 0.1915484 1.0358244 -0.3612431 0.77460927 -0.18425196 -0.66021323 -0.37846357 0.06456985 0.30284747 -0.4849413 1.1869715 0.81259286 -0.68227756 0.84090215 0.23820256 0.18207411 0.29177707 -0.5084881 0.7592602 0.61913705 0.044916365 -0.46895382 0.8834526 -0.36744982 1.2923859 0.8470097 -0.04880891 -0.09210014 -0.02510789 -0.1467773 -0.75001305 -0.5261514 0.21330911 -0.07094195 -0.2003956 -0.19364306 -1.289969 1.0108474 -1.5672101 0.66847706 0.4617172 -0.8280193 -0.22660033 0.2752579 1.0285218 0.045422904 0.5911905 0.2265764 -0.26911125 -0.28904337 -0.7373258 -1.2207605 0.48143736 -0.3560461 -0.37549865 0.065988354 -0.025580803 -0.098896585 -0.21234173 -0.35266924 0.75959545 -0.65455306 0.2600094 0.30805507 0.3806975 0.8169897 0.030022234 -0.16318548 -0.17088538 -0.6063373 0.54242337 -1.440732 0.0916769 1.2882944 0.5321018 -0.62144303 0.17427401 -0.5781884 0.27477384 -0.006007469 1.2465128 -1.209761 -0.5857061 -0.10436591 -1.0441903 0.3198774 -1.3316638 
10 0.58083063 -0.91374874 -0.22146086 0.24420695 -0.65559113 -0.38136384 0.1349054 -0.14653625 -0.56413674 0.007459441 0.68225664 -0.24502474 0.29449585 0.4814859 0.66762793 -0.7434448 -0.17177281 0.48378807 -0.3004083 -0.3983129 0.32192662 0.2046589 -0.11444485 0.33943626 0.73263437 -0.49540293 -0.43408254 -0.25664878 0.6554598 -1.4161218 -0.47769532 -0.2441455 -0.28658235 -0.26607367 0.9829513 0.91217035 -0.12832099 0.77937615 0.66268855 0.5031501 -0.20741701 0.22708638 0.13188125 -1.2035912 0.18346737 -0.3126653 -0.013954203 0.23700981 -0.21032876 0.48781866 0.103582375 0.5829682 -0.29573622 -0.27221382 -0.04476838 -0.24953768 -0.08992632 -0.05485516 0.33447647 -0.20482658 -0.004825258 0.15359949 0.7059686 -0.05351414 -0.21409899 0.09265487 -0.37700936 0.057489004 -0.46442068 0.32097265 -0.18279885 0.01595358 -0.9962158 -0.16140148 -0.10096828 -0.3062993 -0.35293317 0.58353233 -0.6875573 0.3935596 0.92054236 -0.14285472 -0.3204972 0.104107186 -1.0094341 0.50121504 0.043563955 -0.2694523 0.021906769 -0.6010151 0.108488366 -0.43036902 -0.23779045 0.15298541 0.29350126 -0.35578144 -0.39666492 -0.5942953 -0.6616475 0.119550824 
11 -0.007842507 0.25395653 0.36103222 0.4989778 0.7129295 -0.34258848 -0.59467506 0.13238566 0.08764033 -0.20239311 -0.18450585 -0.3645178 0.8168538 0.6411459 0.021907372 -0.18523921 0.14232811 0.5028183 -0.66291 -0.19362794 0.016740141 0.55309814 0.20305806 0.25376812 -0.40183803 0.016851973 0.028667003 -0.27312812 -0.049079318 0.024867438 -0.15551035 -0.3162292 -0.19538438 0.26379296 0.30692336 0.8966247 -0.16902763 0.17786837 -0.49291798 0.3633607 -0.12726864 0.0864437 0.26430422 -0.46293616 -0.50281334 0.16873175 -0.5245598 0.16968854 -0.62750435 -0.43329653 0.7622518 -0.28629145 -0.53063244 -0.75510305 -0.07716632 0.49435613 0.17967217 -0.67471325 -0.0007389247 0.9747814 0.18630649 0.6187196 0.4625869 -0.6103967 0.60957915 0.14224747 0.8436273 0.57034045 0.4084713 -0.5673375 -0.95487016 0.42717195 -0.11800509 -0.0875151 -0.71657515 -0.40880877 0.9877444 0.62447894 -0.36575067 0.002990112 0.18460874 0.4871676 1.0303538 -0.181366 -0.29979938 -0.019620378 0.40545478 0.34244645 0.040990274 -0.0733126 1.049165 0.53629094 0.37467313 -0.45152286 0.51871544 -0.14027375 0.29291922 0.13795574 0.56193715 0.37586287 
12 1.241386 0.5691091 -0.1480816 -0.21503915 0.1533268 -0.31801084 -0.7405915 -0.27024287 -0.71561277 0.06769623 0.98462695 0.23855677 0.9055418 0.37216738 0.46540004 -0.27382165 0.11138658 -0.18285213 -1.1523067 0.4010537 -0.15333833 0.10380828 1.3874292 1.2266757 1.4772724 -1.0502957 0.9746783 -0.39405373 -1.29373 -0.7749097 0.98015445 -0.8435141 -0.36660734 1.1833371 -0.02913832 0.35103092 0.92654693 0.9015526 -0.68710417 1.4338691 -0.6324867 -0.3549779 0.066405885 0.13005924 0.93760484 -1.6970247 -0.9293014 -0.5613063 -0.27336976 0.006834895 0.24198547 0.5655806 0.78196186 0.29076692 0.21696435 0.24212022 -0.88196886 0.26816878 -1.006238 0.49481747 -0.7229995 0.38226554 0.48306337 0.73366344 -1.3584476 0.17855555 0.66939884 1.0078139 -0.5881324 0.29200104 -0.71015143 -0.47027373 -0.26877323 0.30717927 0.5926021 0.75714564 -0.38378617 1.3296643 -0.7845114 0.048249885 -0.8217743 -0.11404243 0.6853678 -0.19079922 0.5992542 -0.102615654 -0.3228362 0.40582013 0.4709161 0.012848462 -0.68035793 -0.050757993 -0.3503532 1.210028 0.5138204 -0.055261422 0.81943005 -0.112407655 -0.5419018 -0.28868875 
13 -0.19582178 0.124969944 0.18328445 0.24138013 0.164163 -0.14110087 -0.110176 0.53696793 0.35072455 0.045335136 -0.19993797 0.07106872 -0.3228619 -0.15745656 0.20535599 -0.08327906 -0.27232945 0.5473402 -0.0517322 -0.35497355 0.5706188 0.21373895 0.6864098 0.59922844 -0.034702927 0.31432328 -0.10691306 -0.06275479 0.07825817 0.15502864 -0.40832037 0.25352064 0.1749857 0.29350024 0.12877673 0.10663771 -0.13219464 -0.046416484 0.039981138 0.118157156 -0.26107526 0.067788616 -0.08871023 -0.30113953 0.55311954 0.36737812 0.11325732 0.42258248 -0.37671798 -0.42591396 0.44796786 -0.09872043 0.12927657 -0.14036731 0.0061235363 0.72734433 0.20541544 0.12784833 -0.20943354 0.10774703 0.07996834 -0.23452897 0.024332713 0.009832024 0.02518604 -0.053165887 -0.2214353 0.57549185 -0.17956673 0.07774105 0.30508867 -0.1954306 -0.48959917 0.32569453 0.123461634 -0.16155232 -0.16407472 0.8653366 -0.09367104 -0.14199173 -0.10448746 0.2077118 0.06965132 -0.39334503 -0.32996607 0.4043884 0.22498168 0.14430237 -0.1756438 0.14583617 -0.14142098 0.3053263 -0.097736835 0.19394454 0.28546384 0.31115532 -0.33177322 0.5556149 -0.34625706 -0.20358399 
14 -0.09759056 0.21224742 0.28089657 -0.77527475 -0.34657174 0.22618258 0.05381375 -0.035564598 -0.6980196 0.5826241 0.06845829 -0.2606505 -0.3037348 -0.10874938 -0.053058356 -0.5678334 0.4510571 0.36947754 0.1672202 0.39629626 0.609465 0.26116464 0.027344424 0.51525676 -0.1567935 -0.25168583 0.17351228 0.5054411 -0.14460295 -0.48498446 0.007269712 0.27652794 0.22587894 0.16958275 -0.06712935 0.31220818 -0.0018357884 -0.050211735 0.19461854 0.08626605 -0.27528405 -0.06890683 -0.098547496 -0.46858433 0.13232207 0.052611746 -0.018512843 -0.36499947 -0.11559633 -0.09788131 0.24736226 -0.14140205 0.87079203 -0.27721855 -0.15059195 0.65268254 -0.1512631 0.61325777 0.42096686 0.6110754 -0.050359994 0.39213163 0.31001994 -0.53968966 -0.3907403 -0.38351887 0.2026935 0.12601401 -0.61226106 0.437499 0.23361143 -0.21684887 -0.3324392 0.4683769 -0.46141464 -0.2816594 -0.3539001 0.95052254 -0.124336734 0.25616997 -0.3832789 -1.1951653 -0.13201055 -0.39799097 -0.37190473 0.15131678 0.87867844 -0.0037706802 -0.2762072 -0.29916868 0.3826896 -0.15544747 -0.6579276 -0.14529344 0.003203761 0.17827548 -0.29382417 0.81441486 0.5901146 0.7976995 
15 -0.1568865 0.07059428 -0.06505376 0.66769034 0.34934595 0.14581189 -0.72779006 0.27380872 -0.48678142 -0.17925173 -0.25220758 0.53100157 0.46190837 0.6569181 -0.60602 -1.048053 -0.10366016 1.1189588 0.25728077 -1.3037702 -0.36118007 0.08902365 0.06388413 0.24499626 -0.9705137 0.7993683 0.549533 0.6859844 0.8064566 -0.5146461 0.66409785 -0.9532514 -0.20143682 0.500287 0.6403755 -0.12323381 -0.109678514 0.36750638 -1.1959115 -0.10199534 -0.59563637 0.49871513 0.22853997 0.46127763 -0.13620207 0.9338597 -0.36536723 0.24891286 -0.6456361 -1.137242 0.5822214 -1.7053727 0.5581625 -0.15161598 0.024986407 1.0961243 0.42005152 -0.086120985 -0.08002312 0.0138542885 0.67699075 -0.08037603 0.34409177 1.2686758 0.57914793 0.5508797 0.7938556 0.11625738 -0.09449839 0.036636196 0.3538323 0.67609245 -0.29877725 -0.028703356 -1.1575129 0.6639154 0.07579436 0.008324362 -0.48233023 -0.102721855 0.061413623 -0.28924918 -0.9873004 -0.74052465 0.4289134 -0.4072905 -0.32574064 0.15922078 0.16242968 0.24768366 -0.43886855 -0.6528045 -0.054399796 -0.24480407 -0.8018239 -0.06915988 0.2469365 -0.34250733 0.55996233 0.89951164 
16 0.56703913 -0.9129754 0.22385272 0.09421249 0.046380498 0.5577812 -0.59848 0.012777981 0.18535455 -0.6919044 0.37775093 0.72343445 0.67076534 0.5090877 0.31006104 0.3027028 -0.22350918 0.09070574 -0.23849477 -1.3055515 0.4523585 -0.53304416 0.40294147 0.23190998 -0.3407234 0.23870054 0.36486676 -0.256798 -0.6139927 -0.37349784 -0.19285512 -0.13951121 0.7195443 0.27496836 -0.13264279 0.27729797 -0.44583958 0.25166065 -0.011732005 0.7990967 0.3991593 0.08770133 0.19719687 -1.0516675 0.08552802 -0.2867993 -0.50628686 -0.49372008 -0.029285375 0.09343363 1.4286469 0.032396987 0.43562052 -0.6334538 -0.021986047 0.06452301 -0.23218864 -0.15900011 -0.24965996 -0.6960769 0.33876073 0.50668484 -0.22855282 0.14968179 -0.5348934 0.7137838 -0.20492946 -0.40548125 -0.65252227 0.30747876 0.4706785 -0.48075148 0.09147958 0.58352727 0.13183215 0.017167404 -0.926698 -0.3884561 -0.14017567 -0.47019562 -0.6118248 0.13265514 -0.1050744 0.39690763 -0.12551753 0.52400756 0.36560026 -0.34900412 0.2546901 -0.59197026 0.014700547 -0.28972337 0.1612463 0.12915726 -0.2249789 -0.33267257 -0.18466978 -0.77509624 0.16598178 -0.1436348 
17 -0.270264 0.03902263 0.9384317 0.085552335 -0.31121397 0.2867609 0.34894392 -0.09370283 0.46458235 -0.10423596 0.57183826 0.12489616 -0.63821 0.19616778 -0.6062045 0.16429797 -0.2753216 0.28163087 0.9884416 -0.26886773 0.32905412 0.6076514 0.8458494 0.52835727 0.13120891 -0.504757 0.4574723 0.83680874 -0.58767813 -0.10459464 0.38526917 -0.87366813 -0.28192937 0.0461945 0.25799656 -0.011258251 0.33864632 -0.118526824 0.05429237 -0.3315784 -0.29104602 -0.4763828 -0.30828556 -0.7130432 0.46278992 -0.48626912 -0.16028294 -0.0456766 0.2222396 -0.251615 0.8457309 -0.03982379 0.40381703 -0.15498327 -1.1373882 0.30017745 -0.23732352 -0.22473247 -0.04269853 -0.08637109 -0.02073982 -0.38544914 -0.40092626 -0.13185982 -0.20757253 0.4866166 0.13762674 0.48440778 0.13366063 0.8127363 0.17110224 -0.9266529 -0.66745085 0.3887247 0.3086292 0.54323596 -0.38598633 -0.124606945 -1.0956292 0.41701397 -0.2179581 0.7668179 -0.09974925 0.20471089 -1.0037667 0.20493454 0.28309965 0.4591885 0.590388 0.46165586 0.49097958 0.7720727 -0.8204554 0.83911407 0.09657076 -0.46037313 -0.9233038 1.4988649 -0.65627456 -0.48824394 
18 0.16817488 -0.5443382 -0.32259136 0.60390997 -0.2593579 -0.38021857 -0.36233598 -0.20735987 -0.003937254 0.7479378 0.34904727 0.38286042 -0.002481354 0.29291135 -0.4304669 -0.052697934 0.043560054 0.048170317 -0.6821897 -0.46964833 0.44966492 0.11167232 0.14152811 0.12859721 -0.16331528 -0.74734807 1.071606 0.23060107 0.78839463 0.37960938 0.05934769 -0.052681495 -0.8017894 0.17126329 0.5689489 -0.3398727 0.18185337 -0.16249569 0.4815657 -0.28968653 -0.21658762 0.61117166 0.144548 -0.8483061 0.012858995 -0.13091633 0.8035566 0.20878966 -0.69135255 0.4551167 0.7646761 -0.09881555 0.7831558 -0.11630427 -0.34093034 -0.787961 -0.6856622 -0.03308889 0.5500344 0.6733891 0.34885916 -0.17305735 0.74765474 0.9363721 -0.27903455 -0.22070675 -0.5023103 -0.1850487 -0.5958496 -0.3937918 0.49973541 -0.1917021 -0.20119974 -0.44948202 0.00686018 -0.60478204 0.18761691 1.066261 0.26581407 -0.43685555 -0.34160075 -0.21430044 0.1359624 -0.0035963582 0.11324991 0.07349027 0.50217986 -0.3292978 0.025099775 0.5363219 0.38826275 0.42912728 0.40768486 -0.2413423 0.4889923 -0.9217421 -0.16443305 -0.20912202 -0.20558667 0.24258345 
19 -0.26268965 0.052743286 0.6015293 -0.23569022 0.09980577 -0.35386878 -0.18315169 0.7802734 -0.025680311 -0.8640258 0.6048736 0.18207744 0.12508449 1.8623607 -0.26645386 0.39456362 0.34167123 -0.21304841 0.4549051 0.033967324 -0.24389765 0.51193357 0.45336777 0.4241961 0.6634693 -1.3940734 0.64034927 0.48809612 0.0442219 -1.0819107 -0.21538536 0.13401948 -0.17076008 1.0224963 0.19104053 0.06288631 0.07977868 -0.22643286 0.2665654 -0.0035420235 0.25803295 -0.16896212 1.0681988 -0.34037128 0.5566374 1.2133226 0.43367213 -0.35000205 -0.83349234 0.12822005 0.5909258 -0.5459385 0.19313607 -0.2479515 -0.31926605 0.8669774 0.57895184 0.084254675 -0.5056887 -0.0044738604 -0.296213 -0.05336685 -0.26814708 0.56428105 -0.52076566 0.16065635 0.0021507961 -0.41787127 -0.4518494 0.71886855 0.015319899 -0.76246893 -0.81357086 1.4056617 0.5191637 0.1640532 -0.49957833 0.56426007 -0.5061614 0.051257916 0.74891937 0.700412 -1.1595162 -0.18975781 -0.40019733 0.8007167 -0.5668629 0.20018508 -0.5815545 0.30993718 0.7787803 0.051361963 -0.108944155 0.5102528 -0.012115251 -0.079091534 0.009516682 -0.3641738 0.07821071 -0.5326913 
20 -0.36149314 -0.33553642 1.3684723 0.23487592 -0.68218076 0.032568727 -0.47347528 -0.44931772 -0.59199005 0.3154013 0.6801767 0.5415236 0.98124284 -0.12075088 0.15346237 0.05217224 0.22086231 0.6424913 -0.09451185 -0.82587576 -0.42745012 0.51513743 0.866753 0.075382374 -0.6269059 -0.24414296 0.65137416 -0.023455769 0.79648334 -0.11003402 -0.15068391 0.2960255 -0.32166272 0.26348615 -0.19436912 0.1059437 0.156972 -0.19847435 0.5627142 0.006253006 -0.46097225 -0.51717544 -0.33076715 -0.41817373 0.05207232 -0.016227726 0.2982898 0.6277431 0.58287346 0.7525623 0.47097504 0.3647943 0.4320516 0.24392624 -0.97681326 -0.6097529 0.62652415 0.12596944 0.2171067 -0.729923 -0.5464418 0.22019848 0.076583914 0.69606036 0.21823724 0.25550708 0.04513488 -0.010839613 0.18426287 -0.7725037 -0.028565733 -0.17108887 -0.8400492 -0.15642212 -0.30156 -0.35221374 0.08650982 0.099576324 -0.28824028 -0.016741611 -0.22389834 -0.57914037 -0.121496625 0.07896256 -0.53167504 0.0874964 -0.6343113 -0.48316228 -0.36318082 0.27884096 -0.2258519 0.10237306 -0.3076862 -0.33600104 -0.018227873 -0.10145585 0.41768724 -0.16742629 -0.35706007 -0.013150115 
21 0.44667533 1.2081809 1.1337763 0.124240406 0.73465556 0.07117365 -0.11856277 -0.12172051 0.3843854 0.3815546 0.1944001 -0.38051218 -0.73959136 0.87927616 0.81748825 -0.2357287 -0.8175503 0.025848577 -0.27117884 -0.10216902 0.33866727 0.27854288 0.36606082 0.49207714 -0.31688857 0.20932621 -0.48340246 -0.06808821 -0.11359908 -0.11171784 -0.10783794 -0.50693214 -0.07027228 0.6159499 -0.014711123 -0.3916358 0.3004801 0.8312586 -0.5255047 1.7923038 0.5343617 -0.8030884 0.07069375 -0.025566436 -0.45490983 -0.49477738 -1.2417516 0.18139647 -0.44924706 0.2229211 -0.005421658 -0.42882523 0.30614662 0.08141814 -0.3233574 -0.604268 0.59886277 -0.0785792 0.24854566 -0.17009266 -0.26378778 -0.76779175 0.38596213 0.19446981 0.4126302 -0.122429706 0.4644059 0.1175004 -0.34110355 -0.017345428 0.5722652 -0.28877082 0.18024983 -0.40145612 0.47533804 -0.75563496 -0.99333644 1.2356976 -0.39168227 1.3166139 0.32503274 -0.17993735 -0.2757289 0.7537585 -0.839793 -0.16993926 0.8010712 -0.06551649 -0.38972983 0.081322506 -0.021702288 0.46663147 -0.50887895 1.3433073 -0.8140281 0.9437201 1.0498327 -0.26571825 -1.0050334 0.7172743 
22 0.21886608 0.34819278 -0.5974759 0.0075764884 -0.08827996 0.13756289 -0.8888907 -0.38916084 -0.2581941 0.18423873 -0.7924128 0.123862326 0.15864387 0.107166626 -0.24234165 -0.8995062 -0.10110113 -0.06508847 -0.30157694 0.19893686 -0.16897963 -0.11943567 0.028712219 0.304385 -0.32557216 0.19580787 0.39239556 0.093174554 -0.5255034 -0.5070358 -0.5018554 -0.39082894 -0.44681913 0.50496453 0.4058504 0.6399467 0.25575915 0.17481552 0.42676768 -0.41867277 -0.520214 -0.13499683 0.07231388 0.096984744 -0.6484451 -0.3183985 -0.38929334 0.02932079 0.18902633 0.17075944 0.54434794 -0.3782492 0.030875025 0.49652222 0.22342913 0.19024089 -0.35954234 -0.1564169 -0.49479577 0.18302573 -0.6246408 -0.18709645 0.37804088 -0.049872603 0.1587696 -0.13116245 0.050314963 -0.22210538 0.09526901 -0.36159018 0.3719728 0.7901366 -0.4050422 0.5425425 0.016654061 -0.25436985 -0.6106573 1.2199341 -0.8143488 1.4836249 0.01931556 -0.2229713 0.5187754 -0.33120045 -0.7646693 -0.15794586 0.3378711 -0.64774656 -0.41285178 -0.36000714 0.37424457 0.3714283 0.08995456 0.1981572 -0.06577507 -0.31548187 -0.4468401 -0.67544997 0.60362875 0.44014066 
23 -0.29988566 1.0789462 1.0129809 -1.2723116 -0.22088997 1.1623604 -0.33703685 -0.23999639 0.22418404 -0.48862395 1.8780091 -0.37378827 -0.14304198 1.2957535 -0.20485386 -0.09615365 1.0770879 -0.23007648 0.10292112 0.16640115 -0.48180935 0.1747303 0.41263643 0.6791228 -0.9354711 1.4867904 1.3936357 0.3780242 0.2781299 -0.26849487 0.11666043 -0.4665872 0.0823718 0.7815927 0.9721301 0.63154805 0.21178631 -0.18818486 0.009109302 0.3729082 -0.30692822 0.4898889 0.41786677 0.32123202 -0.12240464 -0.17736448 -1.0100337 0.036502637 -0.6638707 0.39866078 1.0996231 -0.4372421 0.642105 0.19005786 0.12209288 -0.6757681 -0.35660964 0.57880026 -0.19752593 -0.9383053 0.16225015 1.1756219 -0.04395294 0.4967583 -0.81554824 -0.96151614 -0.56389904 -0.6195608 -0.051524676 0.63214743 -0.65611076 0.15543173 -0.5323457 0.9570782 0.30964777 0.029227225 -0.9725864 0.9039388 0.8917726 -0.402213 0.82072437 -0.084352724 -0.71179545 0.14688097 -0.6087336 -0.19490866 -0.18450059 -1.1923925 -0.4354469 0.03069902 -0.32671487 -0.2613295 0.63630825 0.71604526 0.60434854 -0.025232308 -0.55807096 -0.42736223 0.17201349 -0.009343103 
24 0.015004457 0.008810913 0.7316179 0.12546575 0.242712 0.18198425 0.12654644 0.08451508 0.453078 0.025517993 0.3255266 -0.13394773 -0.37438878 0.24711198 -0.43803948 -0.09564808 -0.15052636 0.6889827 0.5033162 -0.4012428 0.29407802 0.35634306 0.6926613 0.7539136 0.3485178 -0.23077312 0.27521586 0.4157276 -0.46787938 0.3924639 0.029033165 -0.42671758 -0.41690332 0.10518054 0.51693875 -0.07820845 -0.1529294 0.053485435 0.40662715 -0.02862026 -0.086115085 -0.31468773 -0.5148509 -0.2631558 0.37646067 -0.1895749 0.14774449 0.15373605 0.28774872 -0.40818346 0.75867856 -0.19833107 0.36203104 -0.0010098167 -0.38835764 0.3634381 -0.030749142 -0.21773732 0.31753692 0.24434248 -0.10201469 -0.27220884 -0.12669384 0.11530943 -0.30666685 0.5784253 0.20830995 0.5385333 0.026564326 0.6775184 -0.058311816 -0.20958586 -0.8009159 0.4015398 0.1843686 0.39531058 -0.2479207 0.10345873 -0.6126445 0.22036429 -0.1401991 0.27303514 -0.030844102 -0.14229487 -0.541913 0.25861296 0.16778657 0.38108754 0.37142664 0.41875872 0.07895293 0.5540419 -0.3867921 0.8887397 -0.42581847 -0.26681885 -0.9345368 0.827596 -0.57297677 -0.34312433 
25 -0.66088706 0.5693225 0.90844023 -0.24263553 0.035042204 0.514131 0.040203523 -0.57205504 -0.47159603 -0.375625 0.07707193 0.23689534 -0.37985298 0.09343828 -0.56045324 0.038947884 0.4841001 -0.23688091 0.33803257 -0.16183871 0.5693404 -0.1313033 0.95544213 0.56022376 0.056267444 -0.18377234 0.18656316 -0.1033167 0.1335255 -0.7908854 -0.10045548 -1.1425273 0.26717955 0.048198212 0.24250248 0.5425882 0.2447363 -0.07289435 -0.21097924 -0.5573871 0.4921862 -0.18160854 0.337105 -0.55338407 0.38727573 -0.16559927 -0.26895288 -0.265188 -0.052044854 0.57308567 0.76715255 -0.36902556 -0.1898916 0.2476677 -0.22039288 0.36055127 -0.55324614 -0.5094732 0.46045285 -0.22695763 -0.4299708 -0.11740763 0.13337879 0.12957521 0.04611699 -0.25436714 -0.5263584 0.6618963 0.7328094 0.834851 0.11460238 -0.07998831 0.24553926 0.88347495 -0.34043643 -0.16328546 0.49487722 -0.18124631 -0.52824765 0.030087838 -0.32317322 0.4766103 0.019335933 0.2230378 -0.3615699 -0.7342815 0.7142008 0.0480497 0.42597604 0.3893046 0.28874913 -0.04225217 -0.26974514 0.35891116 0.16783305 -0.26705235 -0.03914072 0.962143 0.47771373 -0.44362223 
26 0.029185316 0.062012915 0.6221857 0.3645155 0.85707223 0.40160233 -0.0937208 -0.34928808 -0.54867953 -0.6402719 -0.362756 -1.177664 -0.3715725 -0.12776211 1.0582788 -1.3669232 0.14755484 0.4275435 0.47581753 0.4923408 0.46319294 -0.23729192 -0.7807871 1.7731162 0.69987786 -1.1074564 0.5725038 -0.011029666 -0.47482312 -0.7867518 0.29916623 -0.018144432 -1.0167227 0.5595017 0.33745655 -0.28795704 -0.49935114 -0.37206346 -0.102533795 0.2961811 -0.75454926 0.011583866 1.2155994 -0.45107993 0.12668891 -0.8462204 -1.6363336 -0.05904893 -0.25588876 0.107375786 0.116161264 0.33173978 0.31185886 -0.23232444 -1.3702862 0.34808537 0.18185292 -0.99489534 -0.84242463 -0.04449144 0.64532954 -1.1602774 0.91732466 1.6193326 -0.8154984 0.4576442 -0.49177694 -0.1614588 -0.15982272 -0.37214336 -0.13513464 0.1426682 0.8075433 -0.845804 -0.048114657 -0.115762085 0.03513813 0.59705085 -0.9123286 -0.49246168 0.9747117 -0.26656044 0.49143156 0.23987123 -1.472633 0.024027323 0.7547664 0.4803931 0.8420264 0.43578166 -0.69985735 0.45368806 0.031578224 0.35659876 0.27368507 -0.46486017 0.15605184 0.9843145 0.08307275 0.17973384 
27 -1.081913 0.19892265 0.22195272 0.1271645 0.043358788 -0.97756284 0.09533392 0.26190186 0.17586665 -0.026993027 -0.3982712 -0.3822508 -0.43216926 -0.15742204 -0.4285837 -0.54963624 0.12874097 -0.33859277 0.20502627 -0.7401139 0.39436048 -0.064709626 0.25610417 0.113416694 -0.21597569 0.7152564 -0.32149294 0.10777567 0.05922792 0.21240644 0.15809159 -0.48012707 -0.047912806 -0.073638074 0.10486799 0.39661607 -0.29133037 -0.20732798 0.39858606 0.33826146 -0.4026894 -0.03763902 -0.063573785 -1.1195542 0.4170368 0.20216285 0.1115844 0.95878994 -1.3403037 -0.55546415 0.86343783 -0.08208519 -0.50166583 -0.19620375 0.1382701 0.6140421 0.10481397 0.4744456 -0.5540553 -0.6610975 -0.24756205 0.03172098 -0.044084016 0.4035089 0.20560019 -0.24704693 -0.3877486 0.8300581 0.42133513 0.0822949 0.29443452 -0.99332803 0.088046364 0.44372627 0.05895749 -0.41496235 -0.76144415 0.5545559 0.10537247 0.09649238 0.13671915 0.2994016 0.115643315 -1.0376599 -0.38382947 0.38359773 0.56888187 -0.29855546 -0.5158173 -0.28871104 -0.38617334 0.66897553 -0.54971135 -0.34948486 0.63106096 0.57736766 0.47865465 0.50177664 -0.09669834 -0.44585142 
28 -0.5281693 0.7684356 0.91192734 0.35216746 -0.102878965 0.052085284 -0.47311836 -1.1287173 0.09510675 -0.08272251 0.36909437 -0.50076205 -0.12720864 0.42464513 -1.0759099 0.16042006 0.42994967 -0.4805238 0.2604546 -0.081798345 0.20491901 0.37065017 0.38484204 0.119140245 -0.5807383 0.24701214 0.13861483 0.4329461 -0.3075933 -0.05562282 -0.31836239 0.8911588 0.5492275 -0.027119856 0.88456887 0.39506185 0.030330092 0.702666 0.5063491 0.8502708 -0.2995551 0.18471639 -1.246494 -0.50597936 0.01614504 -1.2067561 0.06784634 0.81112194 -0.24192168 -0.4701074 1.0460923 0.033722613 0.22571988 0.35332635 -0.14265567 0.055043686 0.19556613 -0.6530771 0.18701991 0.11826258 0.27921158 -0.3663335 1.1416531 0.14756024 -0.667116 -0.35166892 0.8108544 -0.10179449 0.051730707 0.096505776 -0.6793696 -0.30711523 -0.03513593 0.31289613 0.19412993 0.35500315 -0.6181769 -0.391541 0.22733787 -0.5980403 0.59216464 0.1655603 1.1347842 0.20104288 -0.3129578 0.49500325 0.020497493 -0.8005543 -0.9809605 -0.2111786 -0.05069222 -0.046299722 -0.39050427 0.3142363 -1.2721254 -0.20212093 -0.26704848 -0.36609355 0.11696344 0.6343653 
29 0.20073757 0.4562895 0.65238756 -0.4709656 0.38133144 0.97091156 -0.3485024 -0.50298965 1.2070544 -0.042892322 -0.7379453 0.2959995 0.28151104 -0.054049104 0.14270921 -0.4010101 -0.19540867 0.537091 -0.43549448 -0.6166065 -0.021536255 -0.32823265 -0.06640065 0.2532514 0.23479939 0.15510023 -0.21337692 0.44693032 0.14171226 -0.34280157 -0.12327582 -0.113331065 -0.19699082 -0.25639358 0.97039896 0.6809343 0.30132544 -0.37462243 0.84418464 -0.34184 -0.2713827 0.3891152 0.39717478 -0.23899455 -0.5104064 0.24705097 0.16073765 0.027529804 0.113280095 -0.31852806 0.2890331 -0.43936607 0.022574944 0.17570437 -0.17702566 0.47133997 -0.26838312 -0.15469365 -0.88843745 0.36331663 0.30656317 -0.5127426 -0.0044372487 0.10105768 0.07107867 -0.04695966 -0.20538428 -1.0720193 0.0013604217 -0.09615099 0.734778 -0.8772954 -0.48607674 -0.0659647 0.18684055 -0.74723583 -0.64053375 1.0495557 -1.0940118 0.20059389 0.3091599 -0.5425463 0.5346611 -0.044832997 0.26895872 -0.37889317 0.5478642 -0.5661753 -0.2673128 -0.03087753 0.23322242 0.35724118 0.19931777 -0.027074046 -0.7641481 -0.43908113 -0.02719171 -0.08348932 0.25179663 -0.24614528 
30 -0.085654564 0.65945125 0.026621634 0.4540566 0.54799527 0.31565648 -0.27581787 -0.64589113 0.21202266 -0.108108774 0.2113456 0.26128343 -0.35223073 0.2606227 -0.47853896 -0.0005616295 0.19984297 -0.043146253 0.0923472 0.16080518 0.12140649 0.1299869 0.40888545 -0.36344558 0.24769285 0.17796539 0.2163839 -0.005417118 -0.66124624 -0.3621127 -0.2551251 -0.07245613 0.047457952 0.688052 -0.20065372 -0.032777335 -0.22347964 0.15197706 -0.22008123 0.32706147 0.16073817 0.19741559 0.22307755 -0.5751022 0.5242508 -0.84735256 0.029636182 -0.33744928 -0.14969034 -0.107034795 0.6385771 -0.7937497 0.047553062 0.33776426 -0.11235679 0.07758206 -0.17116131 0.11524266 -0.6735815 0.04410626 -0.24530269 0.19660112 0.6098885 -0.10962446 0.43165773 -0.08525889 0.27749243 -0.09531357 -0.46507058 -0.46677613 -0.50591165 -0.6838316 -0.20696034 -0.12713297 -0.5215882 -0.043879885 0.60085684 -0.200625 -0.002217415 -0.19366032 -0.2787839 -0.27789685 -0.37444788 0.28603357 -0.52904904 -0.1885751 0.29315254 -0.5565494 0.25744855 -0.30935758 -0.4439207 0.23519033 0.8109507 0.13233738 0.21185252 -0.2547003 0.49260116 0.33881527 -0.35464996 -0.20756193 
31 0.627369 -0.3262207 0.18005338 0.36700594 -0.36763123 0.44047305 -0.816485 -0.96594334 0.2977806 0.42113826 1.1984076 0.20944951 -0.0031806696 0.4651936 -1.3147322 -0.49513957 -1.038337 0.31257537 -0.5999335 -0.17256849 0.8615508 -0.5184753 -0.8844691 -0.88726074 -0.470446 -0.47986916 -1.0417144 0.31335285 -0.11875644 -1.0623398 0.7831126 -0.62523353 -0.89047664 0.99809283 -1.0811567 0.8224729 1.114043 0.034746736 1.155384 0.6885476 -0.3323325 1.285975 1.3424261 -1.2454545 -0.68457395 -0.5034172 0.602492 -0.070472755 -1.2582743 -0.8107892 -0.26123098 -1.0349416 0.34413245 0.38947156 -0.6532161 1.8425363 -0.12301495 0.06324169 -0.089918464 0.53518903 0.8588249 0.51973426 0.07956996 0.18940437 -0.7904288 0.22911136 0.20746349 0.19038235 -0.63557845 0.29837853 0.5359421 -0.2835422 -0.66565806 0.21949291 -0.2547761 0.4776542 0.5249728 0.8076728 -0.71626395 1.0378689 0.37546378 0.6561954 -0.09743144 -0.4678596 0.71631575 -0.07459072 -0.6230147 -0.16615018 -1.2925986 1.0439855 -0.31359512 0.24346629 -0.31590676 0.46109337 -0.07526682 -0.89115095 0.55333316 -0.7764383 0.36285037 0.12455053 
32 -0.15027297 0.054823563 0.18561022 0.06485573 -0.23572162 0.114794746 -0.43101192 0.20519155 -0.12321132 -0.5410057 0.61599845 0.061768625 -0.102130085 -0.37085092 0.24226697 0.17104562 0.41870478 0.6512239 0.039059274 0.05287799 -0.35419774 -0.1250407 0.31108215 -0.618144 -0.19204745 -0.27798256 0.052467715 -0.12680478 -0.41303247 -0.722894 0.21177974 -0.52801514 0.62276995 -0.14174601 0.353133 0.036172442 0.5372993 0.78897077 0.4624907 -0.15376551 -0.11282162 -0.14407122 0.57722557 -0.022440718 0.24843036 0.046396207 -0.77784824 1.035355 0.13643019 -0.6399177 0.7914068 -1.018068 -0.083444536 -0.059632014 0.021271488 0.19540653 0.14915295 -0.008027076 0.7596232 -0.28155237 -0.49059808 -0.28792438 0.18449813 0.5196081 0.25028053 -0.38922706 0.2990082 -0.35430297 -0.56096816 -0.4824458 -0.36341807 -0.051161855 -0.20741531 0.047049392 0.27353242 -0.5056773 -0.03227568 -0.09522561 -0.45969236 -0.3779101 0.07535106 -0.9274986 -0.010569471 -0.13090767 0.20661794 0.22082998 -0.4185531 -0.5215153 -0.8028094 0.78728694 -0.35382333 0.019109003 -0.62633395 0.5757098 0.32546294 -0.259102 0.06911449 -0.25609085 0.13022397 -0.12911952 
33 0.9292554 0.19945343 0.069102146 0.21525703 0.20384462 0.21149454 -0.2715518 -0.7194771 -0.5363913 -0.091016516 0.25177336 -0.36465928 -0.2959861 -0.08505783 0.080315694 0.44581988 0.103690885 -0.94867736 -0.013260464 0.10101522 0.21175557 1.0428314 0.10258673 0.37112775 -0.45737347 0.5509363 1.1702048 0.80537355 0.21515177 -0.17678167 0.41096562 -0.18342826 -0.07796033 0.5495789 0.2390037 0.83448905 -0.25465238 0.16961178 -0.103101775 0.71311116 0.64777863 0.6155987 -0.29291025 0.04151175 0.35935652 0.3105641 0.095622845 0.11342372 -0.38586107 -0.52713376 0.89330226 -0.13296294 0.9467353 -0.2692289 -0.0118756695 0.6582581 -0.100397885 0.30389172 0.6672088 0.4050503 -0.7045705 -0.2580889 -0.17380005 -0.7397183 0.010043565 0.39676538 -0.22433239 -0.16419174 -0.5713973 -0.17969154 0.18915613 -0.050592083 -0.36858207 -0.58584225 0.9150874 -0.33650038 -0.37285194 1.0354781 -0.24188143 0.33198202 -0.10850058 -0.32137942 -0.030574959 -0.34386432 -0.3884221 -0.13818757 -0.06851063 0.29916835 0.16929688 -0.09616888 -0.70169276 0.64717895 -0.28001443 -0.38319653 0.4166681 -0.0045726285 0.051637374 -0.39370006 -0.04114611 0.6359581 
34 0.11845821 0.023103379 0.23715869 0.10362065 0.19341671 0.008348019 -0.24161507 -0.37459174 -0.089605875 0.09835087 0.3052885 0.3376728 0.3688815 -0.023488948 0.1063559 -0.20350817 0.42507687 0.20682426 0.104279116 -0.3425248 0.22364448 -0.05946144 0.050638292 -0.088224895 -0.41181698 0.011044035 0.3209897 0.11282937 -0.20020136 -0.15480685 -0.12414829 0.17466271 -0.15464674 0.4953253 -0.07433485 0.0563088 -0.11549799 0.0023482786 0.21173753 0.42580914 0.086806536 0.068584844 0.18466379 -0.5497243 -0.18506008 -0.39036876 -0.091783814 0.11899849 -0.06699588 -0.2337376 0.57417285 -0.18066819 -0.1193972 -0.06651182 0.0693735 -0.120762974 0.21707244 -0.109710194 -0.1587578 0.008815137 0.18597539 -0.036175482 0.25563496 -0.09531688 -0.1746153 0.15335801 0.2226813 -0.14459571 -0.43228048 0.16403571 0.20842654 -0.20901364 0.06845697 0.06978514 -0.10966839 -0.040124852 0.11063661 -0.2228735 -0.0039874204 -0.25464925 -0.108465835 0.2786365 0.036608517 -0.06282105 -0.547521 0.03008667 0.063780524 -0.44091657 -0.26650727 -0.46183968 -0.05971384 -0.32853413 0.35690725 0.44939673 -0.07980498 0.13574077 -0.4252298 -0.051867753 0.08847102 -0.04951609 
35 -0.19492176 0.45548636 0.4488554 -0.24998741 0.028330224 1.3992505 -0.5461362 0.8345613 -0.0777968 -0.12977602 -0.36465123 0.20265584 0.52934533 -0.51856405 -0.16793889 -0.5397963 -0.29430395 -0.13747732 0.41660258 -0.25428033 -1.4665428 0.2436404 0.7120192 0.07517958 0.31949526 0.39618805 -0.22315353 0.047790892 -0.5293305 -0.11472703 0.88815504 -0.12692267 -0.18156391 0.6678114 0.23315305 -0.72648674 0.9869872 -0.7195266 0.39428514 -0.014285645 0.32896098 -0.35362956 1.1702286 -1.2628825 -0.25569496 0.20112862 0.08007213 0.2545278 -0.8814057 0.68023723 0.78650695 -0.30455953 0.2071972 -0.00066850655 -1.8814588 0.1702103 -0.42862424 0.41817212 0.40690196 -0.17277403 0.056144215 0.06522584 0.24094358 -0.36262798 -0.11099862 0.25098115 0.087173894 -0.10849537 -0.33009803 -0.075924836 0.43950668 -0.7725716 0.058483794 -0.008234205 -0.21718083 1.0216902 0.0055693546 0.9343578 -0.16484328 -0.67689747 -1.2212051 0.3800479 0.7166809 -0.93875563 -0.079197496 -0.46302894 -0.25801647 -0.65881115 0.18058974 -0.0061503304 -0.4685957 -0.79445684 0.101072274 0.30242744 0.85277295 -1.039754 -1.063665 -0.17120123 -0.59227985 0.8927359 
36 -0.6798028 0.03202778 0.21039122 0.04335295 -0.40627798 -0.38014123 -0.024554325 -1.0194838 -0.12905063 0.06712442 0.8504848 0.33465293 0.2868554 0.61243993 0.21147098 -0.1746276 0.061826907 -0.19550174 -0.46649316 0.535294 0.34605 -0.42260307 0.15830371 0.6660799 -0.2672631 0.17197178 0.4222089 0.40243238 0.78039545 -0.10273747 0.07298547 -0.092699796 -0.26905233 0.35736677 0.2664837 -0.13893218 0.027190866 0.26256883 0.24987912 -0.24887474 -0.14235087 -0.3096741 0.7366716 -0.42462012 0.1266885 0.16572669 0.2014537 0.35603726 -0.12614048 -0.3167656 0.17469206 -0.23997678 0.008796328 -0.0028491295 -0.726318 -0.31363064 -0.49726683 0.59780556 -0.4875443 0.06341558 0.0026200279 0.38518727 0.030350996 0.8752746 0.39935702 0.5187578 -0.14510891 0.2100317 -0.3524585 0.19498684 0.3865573 -0.9469644 0.061407987 0.30077282 -0.09948409 -0.97476405 0.27872863 0.18554778 -0.44296706 -0.73065704 0.04228867 -0.11007582 0.37988916 -0.3604796 0.18709287 -0.6303253 -0.43417645 0.75205743 -0.35376367 0.04603516 -0.35687894 -0.4764138 -0.32244337 -0.13074128 -0.0373963 -0.50858164 -0.8097204 -0.2936139 0.2733848 -0.073705435 
37 1.0194318 0.077233806 -0.19842209 0.38441446 -0.4887689 -0.21024013 -0.94967216 -0.33559972 -0.06860141 -0.5360759 0.5312738 0.6549676 0.21303399 -0.6384145 0.4996593 1.0657116 -0.301148 0.5315113 -0.07461635 -0.20302816 0.81221265 -0.7687135 1.2986039 -0.22494683 -0.03293508 -0.34747308 0.5987684 0.2293307 0.237283 -0.9338943 0.3564195 -1.2851963 -0.7395325 0.34608856 0.072406225 -0.9153484 0.04384593 -0.12825778 -0.59126824 -0.29605445 -0.21207994 -0.992936 0.0739586 -0.2324655 0.046270598 -0.5659415 0.19675088 -0.16098651 -0.075793095 0.027973635 0.85484356 0.3217715 0.246011 -0.8249955 -0.9158231 -0.22670569 -1.9091688 0.2785194 1.3004173 -0.22887447 0.73259944 -0.20945428 0.68879753 0.6330772 0.10909813 -0.259669 0.36978647 -0.26204604 0.62712824 -0.065994956 -0.6254214 -0.7277042 -0.1842313 0.8978113 0.31644124 -0.44446656 -0.30331022 0.7210517 0.13663454 0.3586619 0.15899126 -0.3731953 0.39394337 -0.152728 -0.84574145 -0.30042207 -0.44094226 -0.75574857 -0.082249105 -0.32554412 -0.4439235 0.85409343 0.14735614 0.30516022 0.46290535 0.04572198 0.86040276 0.21355431 -0.23446728 -0.4515821 
38 0.17302276 0.6706348 0.43426853 -0.36273935 0.23356259 0.22506486 -0.4066715 -0.32407805 -0.23500063 -0.29947895 -0.87749285 -0.114741616 0.705189 -0.5834474 -0.6369416 -0.26545945 0.07052538 0.43433228 -0.43861443 -0.19585541 -0.19239353 0.05748836 0.044098094 -0.1902185 0.5920308 0.9086993 0.44365752 0.42872363 0.19888486 -0.9652505 -0.027260022 -0.53974944 -0.7864587 0.28272486 -0.23696062 0.03392543 -0.23742151 -0.2660911 0.08335894 0.3063983 0.08798684 0.4635064 -0.23782566 0.13609254 -0.023776473 -0.3977121 0.34611303 0.20937803 -0.5739699 0.5766788 0.6399175 -0.32385772 0.83291197 -0.68604714 -0.056213886 0.79482967 -0.28507712 -0.11839721 0.4033068 0.7775618 0.14094767 0.26747617 -0.19603267 0.6371443 0.033681523 0.18257616 -0.055766586 1.141152 -0.89698774 0.27786377 -0.4226638 0.12118678 0.16553132 0.51466954 0.1666177 -0.22448653 0.6641253 1.0302814 -0.26208562 0.41603363 -0.24265644 -0.2580873 -1.1250592 -0.25457963 0.12719183 -0.6876536 0.31709415 0.077370845 -0.67126787 -1.1360977 0.19669373 0.033414517 -0.87722075 -0.19996415 -0.42306724 0.061870966 -0.6124394 -0.0943053 0.30578664 0.012175992 
39 -0.16609521 0.07648179 -0.055362526 0.05854989 0.028780516 0.23212121 -1.1547683 -0.24130571 -0.6885647 0.176694 -0.4674294 -0.047664963 0.16635326 0.8924351 -0.590122 -0.7688194 -0.14476645 0.25487235 -0.41274956 0.41439134 0.5899389 -0.10462497 0.9553723 0.19069785 -0.17958091 -0.017584687 0.62494254 0.062227223 -0.34966967 -0.41717345 -0.123120606 -0.575895 -0.22833277 0.7422945 -0.19051823 0.5117836 -0.05825175 -0.10162406 0.04797592 -0.5504028 -0.7286209 -0.26272678 -0.5206076 -0.05638318 -0.35059485 -0.085498914 -0.3934681 -0.056015488 0.031904332 -0.13020201 0.37401727 -0.55049205 -0.15034157 0.08528459 0.22457582 0.16037048 -0.28260046 0.5288824 -0.22603707 -0.38859335 -0.36349812 -0.8185746 0.5339427 -0.27123886 -0.07059136 -0.0676252 -0.41081348 -0.6172485 0.46372175 0.124136485 -0.24873507 0.599798 -0.40188938 -0.029124761 0.73210907 -0.074308224 -0.17384124 0.6747166 -0.5547827 1.310483 0.07835229 -0.22344671 0.6367785 -0.45675316 -0.67744845 0.12593728 0.13736603 -0.33860537 -0.2937355 -0.17654337 0.13558775 0.9007126 0.56488556 0.54662853 -0.24472773 -0.6061767 -0.6874311 -0.57842815 0.19737232 0.5133608 
40 -0.033723563 0.8708456 0.6362286 0.6602142 -0.8411671 -0.31982598 -0.52771956 -0.060038816 0.2329147 -0.007207579 0.8440578 -0.15156542 0.5871026 0.23795067 -0.84360826 0.28376648 0.24036992 -0.014337332 0.29525137 -0.6546142 0.40077284 -0.0032176285 0.42710522 0.3955726 0.9745724 -1.1201731 0.31324595 1.6721417 -0.217405 -0.019989958 -0.30797014 -0.5426811 0.6675 0.1313282 -0.40594834 0.95072794 0.7849932 -0.26338026 -0.116081744 0.13748904 0.37515643 -0.07206832 0.6266498 0.39003733 -0.81598914 -0.10028478 -0.57728505 -0.7729834 -1.1253253 -0.076613866 0.70135605 -0.36031494 -0.70048106 -0.75214106 -0.21796738 0.39695692 0.45987332 0.5523159 -0.54014385 0.6621576 0.06330814 -0.23655044 0.5503467 0.6849875 -0.41576564 -0.0021212045 -0.7508601 0.5816645 -0.26925915 0.19647011 0.061870273 -0.48894534 -0.8115773 0.94575787 -0.6902442 -0.9056917 -0.5815223 0.21644022 -0.4005912 0.41040888 0.7247457 -0.021943975 -0.36956388 -0.05851083 0.5883592 0.32286406 0.38470212 0.43841675 -0.9584506 -0.8681284 0.0003949007 -0.24267404 0.07963988 -0.7281862 0.2281118 0.49558437 0.35365072 0.57769156 0.8442433 -0.14799444 
41 -0.30890575 0.52353543 -0.16686274 0.6227095 -0.30763924 0.22900012 0.42143756 -0.077883214 0.30169776 -0.089755826 0.553851 0.6791426 0.68742955 0.27512887 0.20181066 -0.023500752 -0.03112487 0.7481854 0.15597092 -0.22857949 0.1753858 0.46331942 0.09939945 0.48243228 -0.2582939 0.3158984 0.033487644 0.64714336 0.07148525 -0.1596384 0.8204283 -0.43741927 0.028195363 -0.05491353 0.33647135 -0.20104995 0.47128513 0.36308128 -0.26979452 0.6159072 -0.09724038 0.22935091 -0.16651751 -0.3325697 -0.14139673 -0.16146597 -0.75455475 0.5685944 -0.49701235 0.023825822 0.44985452 -0.14513858 0.6244332 -0.45945457 -0.49037203 -0.08585112 -0.1510422 0.4299439 1.0332699 -0.47566423 0.73858696 -0.1841987 0.5336125 0.6800027 0.9757218 0.035135545 0.21828917 -0.65067226 -0.58468604 -0.13135882 0.5649129 0.35945085 0.22254072 -0.26694748 0.047360104 0.6208743 -0.1634651 0.5014786 0.26890448 0.29942334 0.12287542 -0.055935264 0.21545286 -0.4727957 -0.2681293 -0.018255606 0.31980348 -0.36004633 -0.5964022 0.8368618 0.07426126 0.42237 0.5830801 -0.10658445 0.28491947 -0.91643137 0.24257913 -0.21352413 0.6056511 0.21129034 
42 0.12637879 0.4649877 0.036749415 0.94362223 -0.33231178 0.07915421 0.16524982 0.99311864 -0.09190987 -0.9552293 0.4751206 -0.8301273 0.12074304 0.34346306 0.5863156 0.79869115 0.5810774 0.15880695 -0.7530278 -0.19551662 0.22964041 0.41518214 0.1128485 0.72927433 0.24204789 0.26332214 1.2519526 0.6147925 -0.32642522 0.7147526 0.6902803 -0.9894577 0.013659256 0.67657626 0.0862861 -0.55065656 0.15512289 0.42657116 0.045112506 0.7095657 0.86698604 -0.006160043 -0.043850243 -0.31674406 -0.2660108 0.87087995 -0.53958946 0.7657402 0.41022587 0.35120243 0.49395856 -0.04831657 0.18189472 0.58864796 -1.783361 0.021839652 0.25138476 -0.24556668 0.06945767 -0.23000298 0.21954688 -0.25333014 0.1733576 0.35465798 0.05513406 1.3231859 -0.6165027 -0.9034786 -0.37950382 -0.781648 0.8006327 -0.048813622 0.2987335 1.286058 0.20001452 -0.28493124 0.70053494 -0.10473368 -0.69911677 0.29850903 0.1502794 0.08592467 -0.6476359 -0.5292006 0.33042318 0.26824746 1.2436119 -0.15763141 -0.7301147 0.067805275 -0.11589069 0.13276577 1.0865766 0.4430573 0.23964061 -0.5295435 0.30730608 0.37606782 0.9822886 0.99103034 
43 0.18071868 0.99670553 0.40170696 -0.74324256 0.7435476 0.41751477 -0.024445664 -0.26572844 0.9898131 0.0069975522 -0.5658481 -0.2790858 0.49337137 0.19602363 0.1526885 -0.53091973 0.61458236 0.2503676 -0.09768606 -0.9716628 -0.42317283 0.094609745 0.10356531 0.52681583 -0.00072870153 0.2965702 0.5869124 0.5824693 0.2895281 -0.18423231 0.067302994 -0.0029472194 0.04310416 -0.07359252 0.8477462 0.59732336 -0.26755813 -0.6413993 0.7580254 0.022548867 -0.25463504 -0.031472843 0.33038288 0.16352002 -0.29727653 -0.24900739 0.17948236 0.22939853 0.16399206 0.21447712 -0.18255422 -0.11932922 0.21848354 0.32939485 0.19019584 0.5256089 -0.4744535 -0.43989307 -0.6986054 0.52973264 0.21611865 -0.2581443 0.21403271 -0.2786361 -0.022097938 0.30193996 -0.5245456 -1.1486121 -0.25306487 -0.46761134 0.9095224 -0.54230595 -0.29088655 0.33304518 -0.22012821 0.01026499 -0.78724927 0.98548687 -0.926562 0.5120857 0.03346448 -0.3203636 0.37048548 -0.5318814 0.20103493 -0.108088784 0.41035 -0.53270435 -0.5111685 0.16809648 0.55755275 0.21039067 0.23351035 0.27814153 -0.7152082 -0.7607231 0.16679995 -0.3779581 0.23707971 -0.30287898 
44 0.30953103 0.92793196 0.5583778 0.54117286 -0.35556394 -1.0905945 -1.0241866 -0.22789682 0.48153967 0.8423179 1.4471325 0.13231957 0.3065288 -0.3869114 -0.91988957 0.23827998 0.013602021 0.015374231 0.4576626 -0.6689517 -0.668452 -0.40656453 -0.74613714 -0.7357538 -0.1566711 -0.35779953 0.21801123 -0.022235991 -0.21891488 -0.97994524 -0.5756122 0.24072804 0.027817694 1.0265778 -0.02217485 1.2010832 0.8446038 0.5063542 1.2475795 0.23295932 -2.303619 -0.4220707 0.12056481 -1.1870415 0.33081678 -1.1222208 -0.6291759 1.1224128 0.2837473 -0.43020958 0.011783587 -0.3686992 0.66101354 -0.26223972 0.7702628 0.83735204 -0.78494406 0.11704529 1.2379333 0.101728864 -0.6766778 -0.22185732 1.1427077 0.91174954 0.54888636 0.16128632 -0.3730734 1.7795929 -0.22572125 -1.0573235 -0.16283059 0.67885464 -0.775817 -0.11649007 -0.534341 -0.6112347 -0.89516217 0.40123877 -0.24116515 1.1670265 -0.58529645 -0.12754926 0.36973134 -0.5498167 0.7430356 -1.9438086 0.017505324 -0.523749 -1.3935734 1.2981898 -0.20708488 -0.011758613 -0.099240616 0.7001553 0.32482132 0.2362176 1.1275132 -0.09944081 -0.054449353 -0.26767525 
45 -0.31181267 0.13309278 0.31944633 -0.5221061 -0.12691134 -0.015825111 -0.10780759 -0.44269332 -0.5521464 -0.005768464 -0.18615198 -0.40012547 -0.04054502 -0.2008533 -0.23782253 -0.7154768 0.049841493 0.44959784 -0.46314666 -0.28482938 0.61063796 0.18935391 0.09461229 0.025889138 0.32235324 0.124881424 0.22550337 0.30420104 0.3719155 -1.0188862 0.28810725 -0.052811872 -0.05752865 0.49247327 0.16917203 0.093535684 -0.18938316 -0.20059928 -0.03728461 0.18373288 -0.42579794 -0.33736005 -0.22066732 -0.6396983 0.27321583 0.48180482 -0.14786536 -0.57645696 -0.0028379846 -0.23662286 -0.11764345 -0.048846874 0.86731344 -0.20365682 0.008689133 -0.08416505 -0.29892802 0.38999972 0.74179024 0.68013555 -0.18373966 -0.21407107 -0.09177854 0.10339938 -0.63313925 0.11648821 0.00053602376 0.8018913 0.22249655 -0.093617104 0.1038044 -0.05528656 -0.10872848 0.46881056 -0.77447927 -0.17709832 -0.37958705 0.22845048 -0.41356865 0.31203356 0.019479025 -0.9345315 -0.5159945 -0.20903158 -0.22651473 -0.21093437 0.23586057 -0.33493263 -0.64104164 0.003101526 0.5462423 0.22194445 -0.038842883 0.02134998 0.096292466 0.20014934 -0.6582071 0.5662427 0.026794128 0.26089734 
46 0.2993805 0.38344386 0.18571036 -0.11432793 0.68087965 -0.12405181 -0.5363533 -0.31376615 -0.058724348 0.052004565 0.24810854 0.54457515 0.39350814 -0.25689945 0.30796775 -0.87911355 0.03431673 0.106138766 -0.49895227 -0.71634334 0.7339773 -0.12495172 0.44928786 -0.057564516 -0.54458517 -0.8019318 0.24067298 0.2233007 -0.6945739 -0.76510954 0.88810986 0.60560566 0.312304 0.071501285 -0.17424522 0.3309499 -0.28284094 -0.04218382 -0.24254774 0.5868962 0.042029615 -0.3802953 0.8984184 -0.5529659 -0.26157203 -0.6066175 0.085272916 0.13015611 -0.12016331 -0.7349897 0.3284745 -0.20390005 -0.36977866 -0.5857491 -0.4625099 0.022981208 0.36294988 -0.62276316 -0.6999513 -0.40105605 0.16605851 -0.34578285 -0.2511056 -0.2106272 -0.5338848 0.39114878 -0.4351554 0.15453845 0.284742 -0.09358912 0.36248264 -1.0903233 -0.6905558 0.31437263 -0.35627145 0.3810479 0.62330484 -0.26322526 -0.08342423 -0.14881328 0.40065047 0.0027695212 0.3740564 0.11627377 -0.79227155 -0.15229276 -0.77652204 -0.26427084 -0.9997305 -0.93334293 -0.4875989 -0.43523008 0.5321456 -0.10281516 0.006560602 0.034445792 -1.2605397 -0.108121864 -0.017747061 0.74549365 
47 -1.5631756 0.08390001 0.516099 0.1837414 0.9713784 -0.29193404 -0.64792544 -0.16880015 0.13329567 0.03802875 -0.08579673 0.857842 -0.0606765 -0.5447745 0.23692413 0.18747726 0.3935179 -0.20565127 -0.7339034 0.34355113 0.41166142 0.5377178 0.1988584 1.1044977 -1.2736101 -0.61896366 -0.056053385 0.31787887 -0.98326427 -0.17285025 -1.2156558 -0.655904 -0.62073964 0.49222186 0.045094457 -0.8180115 0.2648929 -0.5747383 -0.32723907 -1.0788285 -1.2104503 -0.07187277 0.5011665 -0.9270933 -0.27269363 -0.32660225 -0.41180012 0.930343 -0.4753167 0.057032928 1.0294253 0.44788492 1.0721016 0.3831241 -0.7712554 -0.6286618 0.44982985 -0.27429706 -0.18553066 0.12197434 0.65315765 -0.83427906 -0.72018987 0.3172372 1.0259585 -0.22575574 -0.6078139 -0.790156 -0.12424061 -0.014578858 -0.30523673 0.48861805 -0.61529034 0.7444845 -1.4794554 -0.24013898 -0.52656114 0.094553925 -0.037567027 0.51544064 -1.1203631 -0.039152376 0.93927723 -1.2231534 0.59486455 -1.4369951 0.15631196 -0.64795095 -0.45590806 0.36608657 -1.3227171 0.41010618 -0.78352374 -0.81906664 0.09629363 -0.20155302 -0.012003732 0.06397719 -0.28317022 0.3932142 
48 -0.64142084 0.49481317 0.11688413 -0.14571732 -0.21993518 0.4229989 -0.40908366 -0.15936504 -0.4111014 0.018654967 0.2821751 0.16468935 -0.37141335 -0.23081844 -0.20481971 -0.530693 0.0047698203 0.08425869 0.5258708 -0.5611397 -0.30516738 0.4995064 0.52865493 0.49921638 0.5798601 -0.45464858 0.19894724 -0.48417857 -0.8180461 -0.270106 0.70437926 -0.25990814 -0.044273496 0.0959395 -0.41316012 0.2563955 -0.38147998 -0.025643902 0.2817839 0.3798606 -0.32253578 -0.19875665 -0.14114366 0.0996326 -0.12981637 -0.49229434 0.39456087 0.82871795 -0.25151575 -0.10055049 0.57812625 0.01715532 0.7551924 -0.22374026 -0.07356327 0.48262072 -0.05541154 0.15360452 -0.035524346 0.148762 0.030172005 -0.050129093 -0.014352011 0.16094473 -0.32659012 0.7240949 0.2247459 0.27290428 -0.14042453 0.8466348 -0.05416184 -0.25156814 -0.4342739 -0.04025227 -0.056530226 0.106045924 0.31892368 0.5585265 -0.6881337 0.21136874 -0.13110463 -0.2908599 -0.14726964 -0.00015804032 0.8988319 -0.30794582 0.6496358 -0.20011131 0.11810267 0.15681283 -0.006491889 0.9823721 -0.98954815 0.09483575 0.66156113 0.6935952 0.17684083 -0.010738292 0.18453881 -0.6090544 
49 -0.35204914 0.514082 -0.31354082 -0.32850325 -0.43720484 0.16237286 0.19959207 0.21312524 -0.37082213 0.21452944 0.41067505 0.08487423 -0.048593953 0.30005777 0.28690603 -0.46431515 0.07073577 0.32849395 0.26981217 -0.20283473 -0.20874326 0.40210044 0.47578308 -0.113790974 0.25631136 -0.36699784 0.03327454 -0.129823 -0.41238376 -0.23009098 0.3959765 -0.24344425 -0.09318576 -0.065522105 -0.12206201 0.6402066 -0.25631043 -0.091224626 -0.046045173 0.24935511 0.06436723 -0.29235166 -0.429734 -0.716071 -0.3173325 -0.21274497 0.60094947 0.4389305 -0.55578876 -0.009004636 0.6861447 -0.11653236 0.06731595 -0.9483498 0.00046929898 0.69968945 -0.3654131 0.5941972 -0.4286937 0.04973549 0.24997228 0.34348947 0.23023078 -0.2067219 -0.3205024 -0.10749194 0.004075582 0.34450376 -0.21646261 -0.097267956 0.40952832 -0.38102067 -0.28149006 -0.08327827 0.4487959 -0.30436286 -0.34038723 0.5785742 -0.054070674 0.07577521 -0.20663628 -0.11506284 -0.09750266 -0.32376006 0.34230068 -0.27715945 0.50517976 -0.19806588 -0.0003057831 -0.30817208 -0.6024308 0.92999655 -0.7442894 0.01602882 0.5966648 0.61454046 0.44785982 0.19769387 0.26308882 0.79606915 
50 -0.7786754 -0.67243373 0.8117068 -0.7481019 0.70742816 0.19247541 -0.47204897 0.35798678 0.1384546 -0.9229849 0.46000308 0.4132728 1.1052952 0.84374785 0.73783106 0.13193671 0.529882 0.13097362 -0.55791306 -0.3165039 -0.36471778 0.06813108 0.759706 0.13351852 -0.51537997 0.02091081 0.69090825 -0.052912228 -0.17200755 -0.20094183 0.24949202 0.2304687 -0.43596968 0.38114285 0.37385327 -0.19115098 0.37661058 0.23622242 -0.3950166 0.5179704 -0.18568157 -0.26543576 0.039390996 -0.85996807 0.5261097 -0.28959215 0.1624785 0.7556771 -0.14968163 0.13417394 -0.048016824 0.42867658 0.81209975 -0.3382314 -0.62018913 -0.13149698 0.03811241 -0.1840025 -0.1268865 0.34963232 -0.09835195 -0.013752393 0.3801039 0.080766715 -0.29005352 0.774801 0.025023002 0.5964208 0.11834103 -0.5162858 -0.37843233 0.074942596 -0.22034307 0.16498487 0.58377826 -0.29583493 -0.6260652 0.14227498 -0.3226145 0.91022795 0.16206075 -0.4913933 0.53278565 -0.50235176 -0.08005306 -0.75853 0.38810703 -0.8478761 -0.10116634 1.2298949 -0.6112554 -0.029156527 0.46221083 -0.7558251 -0.10376094 0.34116778 0.8506949 -0.3031673 -0.32130587 -0.05807022 
51 0.32444054 -0.09619471 0.3468158 -0.034138434 -0.29199007 0.4820205 -0.06440953 -0.14302108 -0.16673462 -0.9028472 0.9612388 0.12248032 0.088516735 0.77453536 -0.05291066 -0.4042496 -0.04618978 0.39140078 -0.3288449 -1.1983011 -0.39309213 1.3195137 -0.09412335 0.71182173 0.022311578 -0.7849968 1.071197 0.19551472 -0.46364442 -0.3613125 0.4176362 -0.96504736 0.10473498 0.22003679 1.1552488 -0.5730481 0.08914835 0.08558544 -0.2865947 0.41860732 -1.3859695 -0.13679528 0.284744 0.048270583 -0.5966383 -1.1915923 -1.0399163 0.17241473 -0.08760959 -0.36287314 0.18635339 -0.40882912 -0.64955527 -1.3605272 0.18760143 0.48941004 0.8220487 -0.06840289 0.77103275 0.38816065 -0.010548708 -0.5133484 0.08861702 0.0573995 -0.46343362 0.90069556 0.39746523 1.1407443 -0.6601377 -0.19940059 0.18301442 -0.13665125 -0.457933 -0.48226002 -0.6694087 -0.3181737 -0.46929556 -0.20313278 -0.13257736 0.9809458 0.048762754 0.44112667 0.19042738 -0.5715345 -0.74986327 -0.1573344 -0.33224368 -1.1692035 0.28323978 -1.3758159 0.09802488 -0.40815035 1.1554295 -0.5327945 0.36208245 -0.10764439 0.8316132 0.022275463 -0.8346752 -0.50745636 
52 0.36482212 -0.08455371 1.4824859 -0.39810127 -0.09800009 -0.40206325 -0.19652158 0.46970022 0.4258229 0.18190442 1.0066842 -0.65934324 -0.3376716 0.1373272 -0.02181427 -0.027788075 -0.34930697 -0.5218867 0.67873764 0.19875059 -0.26922315 0.05836326 -0.08996329 -0.33683556 0.12766793 0.7110146 0.48151368 0.16351627 0.97657216 -0.43173137 -0.40194374 0.42651653 -0.42872176 0.105819136 0.9696526 -0.23124488 -0.43482992 0.09084923 -0.54585725 -0.4111017 -0.041501496 -0.13686985 0.33788347 -1.0069033 -0.0471953 -0.7459902 -0.7436229 0.19337066 -0.8071175 -0.34080696 0.5678431 -0.48279908 -0.21281481 -0.0073746936 -0.20135479 1.044567 -0.33798638 -0.9048925 0.3488086 -0.37897965 0.27303207 -0.025266284 0.0008548352 -0.6184311 -0.024727717 -0.093064636 0.079254076 -0.53223807 0.074224904 0.06636134 -0.1571226 -0.40625685 -0.30037278 0.5093869 -0.47880057 0.2842815 -0.10205942 0.61093885 0.14404005 0.84479994 -0.7399165 -0.22358327 -0.07980889 -0.3400564 0.03521002 -0.5630022 0.3718746 -0.14805694 -0.9839561 0.14376317 0.17446257 -0.07070904 -0.4776396 0.35880196 0.30279073 -1.0619733 0.2494643 0.21985732 0.34653747 -0.026402913 
53 0.20750141 -0.0023732856 -0.023295457 0.31820202 0.15323085 0.16237532 -0.5313797 -0.28367513 -0.39370054 -0.12750742 0.27918887 0.41031772 -0.17465955 -0.22206242 0.23135029 -0.2434811 0.20566267 0.16897942 0.076142766 -0.35685727 0.314844 0.33042213 -0.09966606 -0.35950387 -0.31379774 -0.10226421 -0.1136791 0.33010653 0.15767558 -0.37633023 0.262646 0.19485268 0.05729439 0.44992253 -0.1307973 0.0030517024 0.05220042 0.15817004 0.30125687 0.2462177 -0.09563874 0.013188974 0.2685083 -0.64984834 -0.057139736 -0.30078998 -0.046391115 0.1462498 0.28395206 -0.18078415 0.76704246 -0.4517826 0.32059848 -0.1585222 -0.043020304 0.2116729 0.30911997 -0.5062506 -0.274985 -0.22085579 0.22953007 -0.00022087221 -0.18331362 -0.07910081 -0.21535626 0.4420271 0.047139846 -0.11318252 -0.36185735 0.33323774 0.084242344 -0.60992444 0.120666705 0.03765527 -0.40297475 0.08766556 -0.18659957 -0.1105918 -0.06477332 -0.07966436 -0.3569985 0.5473983 -0.02445418 0.07517553 -0.41491795 0.081995785 0.24161492 -0.6879618 -0.45689103 -0.5959844 -0.28616625 -0.57869637 0.441929 0.06674553 0.10811559 0.040497214 -0.3462793 0.083163194 -0.14976904 0.14495733 
54 0.18998891 0.5877006 0.2292839 -0.69863874 0.19425826 0.4465014 0.32623482 -0.055133928 -0.26302856 -0.45961893 -0.52980137 -0.16413908 -0.04719159 0.08939226 -0.06578392 -0.2828995 -0.9214065 0.599669 -0.45758745 0.026449881 0.33878186 1.1700542 0.26067978 0.12739325 -0.42416996 0.32918262 0.5156964 0.4436715 0.18876803 -0.3662296 -0.1647134 0.04125873 -0.546991 0.33504066 -0.36760017 0.082218155 0.6103302 -0.13866289 0.16364507 -0.17273635 -0.076850474 0.39218742 -0.00266967 0.45805532 0.526997 -0.752834 0.13164501 0.36984804 -0.5321172 -0.91516393 0.93724185 -0.41019124 0.548229 -0.20877679 -0.20379366 -0.11727546 0.7296025 -0.107676074 0.14400786 -0.38201708 -0.2730506 -0.9668138 0.23656456 0.3285353 0.92434084 -0.023269566 -0.16099066 0.8197635 -0.08248194 0.17254293 -0.33951977 -0.22168241 0.06457786 0.8776665 0.38006836 -0.8262969 -0.551104 0.23291895 0.38979042 0.013113695 -0.32162365 -0.1842968 -0.1974359 -0.3263328 0.13457605 -0.4188728 0.6474636 0.07405022 -0.2547473 -0.28283557 0.09479265 0.35037833 -0.33810064 0.18256566 -0.32655835 -0.7811635 -1.1753762 0.54009444 0.5839277 -0.54935443 
55 0.03971873 0.5459075 -0.37499243 0.27961797 -0.56428015 -0.028472608 -0.40551162 -0.18854155 0.6790122 -0.14537394 0.47460252 -0.46716985 -0.23451936 -0.33802044 0.31624088 0.837996 0.26432034 0.3489505 -0.11060684 0.11044659 0.30816984 0.24033016 0.4725906 -0.103577964 -0.43977487 0.11256707 0.15582114 0.053943075 -0.14994462 -0.80630195 0.32519993 -0.3915322 -0.013599836 0.16834877 -0.15279548 -0.39396963 -0.37757325 0.15532112 -0.6022984 0.09132343 0.11465965 -0.9160355 0.5162629 -0.21568839 -0.014949937 -0.16686895 0.52124166 -0.7456495 0.018968526 -0.111224666 0.6951839 -0.3636826 0.5402697 -0.39747065 -0.69587344 0.076405264 -0.4608508 -0.2990131 0.28923044 0.021619234 0.21147421 -0.28011423 -0.026711306 0.04013797 -0.18699178 -0.3164749 0.94148314 -0.4275584 0.42507675 0.11334716 0.12180839 -0.6308445 -0.08890235 0.4969793 0.10299895 -0.2192165 0.19940953 0.7247321 -0.0832861 0.47491285 0.21899725 -0.26837918 0.3028474 -0.38326138 -0.25982168 -0.7702864 0.40324962 -0.04262825 -0.3648569 -0.0031044348 0.5577181 0.07494109 0.23442735 -0.0094720805 0.12476984 -0.21003234 0.69044113 -0.50972545 0.22713219 0.14288093 
56 -0.621005 0.4787453 0.04903952 0.41810808 -0.004843244 0.66463 0.17075056 -0.35449916 -0.022256576 -0.48180342 0.5839246 0.41034326 0.08446696 0.494829 0.19702668 -0.20565885 0.5015516 0.5722142 -0.051611245 -0.10597358 0.26101032 -0.25245723 -0.58116245 0.4308692 -0.30049768 -0.25885642 0.603631 0.3153907 0.61410034 -0.47526345 0.51452947 -0.39501476 0.9029968 0.1376258 0.32128346 -0.7708489 0.10966559 0.4045674 -0.4147766 -0.5171723 0.48445216 -0.048452437 -0.1593026 -0.18987878 -0.89104253 -0.4828176 -0.40461916 0.50912374 0.18796508 -0.34596 0.55009335 -0.2470705 -0.08203591 -0.047658764 -1.6967704 0.42567644 -0.56903213 0.08481437 0.28125286 -0.41662547 0.6490489 -0.4055854 0.12571141 -0.38206834 0.5198211 0.3852309 -0.62427026 0.4864758 0.26948074 -0.63082266 0.86718124 -0.18788937 -0.62670916 -0.12898886 0.10580215 -0.45548838 1.2431197 0.70154786 -0.06534535 0.5669451 1.0291808 0.39527252 0.18658347 0.48917374 -0.62807745 0.06691454 0.52276546 -0.04484804 -0.52165484 0.5681615 0.07560685 -0.46896195 -0.7049662 -0.57771224 1.0227933 -0.4688075 -0.44672868 0.12702751 -0.35025525 0.37877256 
57 0.8789072 0.45033696 0.349361 0.15445082 -0.75116926 -0.7564939 -0.46556094 0.029775405 0.14296813 -0.4115723 0.53431 0.13819985 -0.18617652 0.30721 -0.30455697 0.36619154 0.75944906 0.04567128 -0.075315855 0.12101585 -0.69762594 -0.03620765 0.59820485 -0.011559643 0.24083851 0.088320084 0.61593163 -0.92958784 -0.025644157 -0.7471514 0.043659933 -0.35003862 -0.34276903 0.118185446 -0.14455624 -1.5450563 -0.28043097 0.29142112 -0.1417225 0.4876159 -0.2505221 0.01713077 0.5991118 -1.221525 0.25211635 -0.6299091 -0.497488 -0.15500437 -0.43362978 -0.5460435 0.75864005 -0.12974046 0.1132373 0.30076876 0.48654717 -0.005438508 -0.54829335 -0.3427533 0.26987237 0.697384 0.9414183 -0.42715773 -0.3305505 0.43709373 0.633784 -0.47565857 -0.2918958 -0.06882288 0.43487754 0.04032261 1.1071819 -0.30254325 -0.48797366 -0.6342066 -0.19192658 -0.37656605 0.37790093 0.17858616 -0.93450385 0.26028642 -0.48438814 -0.65880567 0.1775852 -0.7376821 -0.68626946 -0.5075855 0.1218866 -0.2546604 -0.30840808 0.43390647 0.18430763 0.98444015 -0.037433714 0.004956253 0.860637 0.21173239 0.68955964 -0.2204724 0.090779 0.051810313 
58 0.047323525 0.08288477 0.2945808 0.14545901 -0.14456077 -0.09742943 -0.5680276 -0.11468871 0.005803455 0.078720026 0.36985072 0.64646834 0.28967133 -0.44165155 -0.028857691 0.33045864 0.98802876 0.2565903 -0.24947602 -0.6876032 0.17167193 -0.21277584 0.52050835 0.26282698 -0.1288742 0.11178063 0.6705578 0.091016635 -0.658159 0.046115577 0.18127961 -0.0330678 -0.056830034 0.77068084 0.56266415 0.37391362 0.19449012 -0.7719608 0.24907176 0.2952649 -0.21790247 0.6473786 -0.13058983 -0.45414633 -0.3240579 -0.7493976 0.030680597 0.15986651 -0.29494613 -0.012961935 1.2566546 -0.59140056 0.4492469 0.85928947 -0.14527906 -0.15182345 -0.18810818 0.01597114 -0.26551548 -0.037884753 0.17428249 -0.121703684 0.35571903 -0.2487029 -0.34898198 0.23445413 0.57610315 -0.06381626 -0.23620476 0.3519409 0.35727113 -0.43195805 -0.16201003 0.16003232 0.06859165 0.3687332 0.3768601 -1.0402417 -0.21435054 -0.33571294 -0.86595166 0.1636824 0.4414586 0.17052492 -0.42022133 -0.025180388 0.066419564 -0.23162264 -0.19181286 -0.5903375 -0.39007536 -0.28103644 0.8011901 0.77170414 -0.019275071 0.2662907 -0.58459836 0.42397428 -0.13847883 0.050510254 
59 0.099219695 -0.17057243 0.7588652 0.2873209 0.22055224 0.038361255 -0.098321475 -0.37706828 -0.02176349 -0.23046078 0.29906133 0.32455054 -0.2015298 0.38181517 0.5664337 -0.26033857 0.44708425 0.34335703 0.04936866 -0.49286762 0.3994769 -0.0063870708 0.16559723 0.1891753 -0.08057565 0.17056985 0.4734602 -0.26525286 -0.6622269 -0.3414418 -0.13894998 0.18810743 -0.33663535 0.99874914 0.42733207 0.36941773 -0.26500612 0.30624875 0.19147508 0.18906629 -0.19894955 0.2177286 -0.357791 -0.24347384 -0.3336863 -0.026694937 0.039041717 -0.22079563 -0.05089985 -0.5504347 0.68496764 0.17303407 0.16591321 -0.020597024 0.16977726 -0.016357029 0.16961092 0.13248992 -0.4158444 0.37746945 0.2907344 0.26733053 0.24216734 0.6017214 -0.16847898 -0.20929456 0.16300133 0.02370997 0.041342568 0.055109866 0.49114802 -0.12162715 0.7729815 0.14574814 -0.25749722 0.13932027 -0.7102756 -0.45051914 0.49681422 -0.5180161 0.3212616 0.5271536 0.16213183 0.11904042 -0.3721129 -0.03222653 0.2289759 -0.49953192 -0.47114965 -0.3293668 -0.238605 0.03654526 -0.5763885 0.17164196 -0.28597066 -0.16813688 -0.07757165 -0.4047167 -0.075248525 -0.1270287 
60 0.36095524 -0.0349345 -0.32838103 0.15441518 -0.5190736 -0.14324187 -0.8073352 -0.39825755 0.19524296 -0.6470714 0.46607155 0.2184366 -0.047494948 -0.21608882 0.57512903 0.7873909 -0.031944595 0.48217136 -0.07622345 -0.14042707 0.67359835 -0.30183354 0.9158013 -0.11780588 -0.6943661 -0.12904106 0.0015095484 0.2532933 0.040434867 -0.6022636 0.568535 -0.7459058 -0.27512804 -0.034684584 -0.20354019 -0.49476546 -0.36504617 0.08249349 -0.56312007 0.032699723 -0.0942583 -1.0790964 0.08218711 -0.3242381 0.33163658 -0.8424794 0.038733743 -0.35062018 -0.44045645 0.15961345 0.538216 0.08813699 0.3367478 -0.49945655 -0.48682052 -0.07416714 -1.0520633 -0.05450863 0.61803156 -0.4396602 0.6188495 0.12288357 0.31576374 0.21720606 -0.10394161 -0.050487217 0.46167853 -0.41709816 0.656297 -0.48636293 -0.5254047 -0.7141773 0.026582168 0.8590542 0.6195764 -0.44506174 -0.11617699 0.6181283 0.14884254 0.3168787 0.19681685 -0.2743024 0.28918225 -0.47365332 -0.70585155 -0.850126 -0.1947083 -0.2830967 -0.37851524 -0.24896364 -0.13975957 0.5109519 0.23049307 0.040158555 0.20460191 -0.022434346 0.6877603 -0.32265538 0.24882074 -0.64397067 
61 -0.03689345 0.91808915 0.43093908 0.21178743 0.767543 0.50138885 0.0895793 -0.043794032 0.13627476 -0.54596114 0.14118734 -0.38592616 -0.4216922 0.21612625 -0.5680773 0.35655507 -0.29748112 0.08658399 0.08346886 0.10282005 0.15156597 -0.12067755 0.5969363 -0.2237566 0.32740992 0.8019381 0.10692602 -0.41811514 -0.12350557 -0.30600208 0.022105932 -0.6641946 0.37651688 0.21236336 -0.26198635 0.090258606 0.011853815 0.22538698 -0.14352034 -0.10327261 -0.089743026 0.22863345 0.2281704 -0.9017116 0.748166 -0.7840567 0.21493268 -0.17548093 -0.59187126 -0.24943443 1.2941977 -0.31987756 -0.0467304 0.08943134 -0.42240787 -0.090029575 -0.43404382 0.31404924 -0.8674748 0.59043336 -0.42587036 0.51727253 0.24994081 0.022757588 0.3728803 -0.08672389 0.58282954 -0.5633953 -0.4290275 -0.62393004 -0.40383372 -0.5791506 -0.16249415 -0.3490203 -0.5069345 -0.1723252 0.42647293 -0.33137405 0.41909486 -0.22476377 0.18267749 -0.5839024 -0.107812375 -0.052536972 -0.43904316 -0.06109931 0.24203306 -0.98640776 -0.019970313 0.03248527 -0.5148818 0.49289402 -0.22265342 -0.03749139 0.011971557 -0.25446087 0.17011656 -0.10877921 0.13818884 -0.03494411 
62 0.05652905 -0.16557825 1.6515313 0.47776988 0.9920903 -0.49894723 -0.4507801 -0.78839594 0.12431947 0.23600686 0.4495143 0.3412151 -0.19821437 -0.12549314 -0.58059436 -0.8662825 -0.47998324 -0.016352974 -0.52747184 -0.49115536 -0.24197595 0.59191865 0.49050704 -0.49095118 0.8386428 -0.40754548 0.30289698 -0.2568484 0.49198738 0.10237437 0.29461667 -0.48175833 0.047513098 0.46051311 0.6956505 0.415021 -0.40629563 0.051346343 0.06289444 -0.44138637 -0.18784583 0.39479402 1.0352701 -0.46528804 -0.040333983 -0.9960053 -0.69040364 0.45766607 0.30209562 0.5432819 0.77602035 -0.24957776 -0.31834772 0.16792083 -0.31565413 -0.2603433 -0.70970815 0.866008 -0.96943575 0.60059065 1.2213892 -1.2565203 -0.29601172 0.43238118 -0.39591858 0.55824786 0.47927088 -0.056984227 -0.6372288 -1.1806942 -1.1686752 0.028590655 -0.04460032 -0.15606105 -0.552911 0.34485918 0.527609 0.81320345 0.116054006 0.314713 -0.42103583 0.09368034 -0.16247769 -0.6356894 -0.24031751 0.44103348 -0.0529667 0.8631866 -0.93826187 0.61412984 0.20136994 0.08901417 -0.37378 -0.27363053 -0.35513777 0.08191106 0.75027484 0.65893847 0.579368 0.22246143 
63 -0.91246974 0.9345944 -0.08277295 -0.1497764 -0.14310746 0.6172729 0.41436762 -0.43446776 0.22335786 -0.28181767 0.10926688 0.33116856 -0.81293863 0.15982233 -0.37687796 -0.976648 -1.2849678 0.7382286 -0.91680586 -0.7769717 -1.6129793 -0.0419689 0.75756675 -0.4146464 -0.24291502 0.37636393 1.7589357 0.4311514 0.13096096 -2.1410306 -0.2857046 -0.35110024 -0.16214442 0.66958684 -0.30572337 -0.29728678 -0.06819 -0.9302747 0.078813754 0.58821434 -0.7604257 -0.37354642 0.3510874 -0.4404568 -0.7507267 -0.0992418 -0.23904692 0.22196224 -0.5111006 -0.17171824 0.30538055 -0.19890718 0.5563901 -0.47113734 -0.6960461 -0.28111276 -0.25495428 -0.2555625 0.5729128 -0.8491125 0.56786925 -0.102331355 -0.027209682 0.58723426 1.1377561 -0.30930588 0.46572372 -0.0013133507 -0.11919459 0.024816332 0.3055933 -0.23268403 0.90901726 -0.34194407 -0.4426587 -0.6570635 0.2188281 0.108759664 -0.19740665 0.40400046 -0.028819652 0.46858186 0.33832562 -0.1903708 -1.5018897 -0.89813524 0.56048363 0.3496312 -0.5384114 -0.24640685 -0.00029863298 1.7626909 -0.68970776 -0.98357695 -0.2721479 -0.3814971 0.85570675 1.0787016 0.83054304 0.07483481 
64 -0.37502602 0.18750922 -0.43276826 -0.21625777 -0.3128531 0.50263965 -0.4834841 -0.5301007 -0.2955368 -0.18008827 0.45860687 0.59623766 0.44944322 0.015624043 1.0039498 -0.56324846 -0.11420174 -0.0693837 -0.48136872 -0.8214253 -0.3514431 -0.08319948 -0.050318588 0.53112394 -1.0008574 -0.672863 0.5318506 0.0761249 0.3807479 -1.0855441 0.45759696 -0.6600484 -0.11780833 0.61185944 -0.66795546 0.40674764 0.382719 -0.34614843 -0.13685094 0.24779703 -0.17712653 0.26988965 0.04382606 -1.0624536 -0.09566402 -0.2574047 -0.057737738 0.9031536 0.04224591 -0.5831458 0.8928333 0.26283616 0.11510767 -0.16717787 0.037373573 -0.25340596 0.26109412 -0.86595684 0.18508935 0.37519112 0.8058358 -0.66734934 -0.40358436 -0.36422962 0.38849005 -0.16138972 0.5174863 0.5682085 -0.7008039 0.15982477 -0.48693296 -0.60596937 0.21438605 0.04404384 -0.9835843 0.50982475 -0.046939157 -0.24874213 0.132266 0.44945872 -0.1540256 0.6040125 0.3985188 0.34636837 -0.814198 0.4043699 0.16835651 -0.48927215 -0.38847554 -0.36669862 0.21737261 -0.5052442 0.437575 0.4829903 0.5588291 0.1304579 -0.07427628 0.47834757 -0.04858068 -0.4591185 
65 0.7605192 0.4183258 0.5327254 0.07504345 -0.6215938 -0.17345479 -0.06566669 0.063681655 0.47825426 -0.32653937 0.5028045 -0.5683259 -0.22229749 0.14391306 -0.35388246 0.21902867 0.4589625 0.1651096 -0.040041625 0.18870035 -0.59584564 -0.029934688 0.3345438 -0.26407552 0.048445377 0.23852555 0.43046194 -0.4766419 0.17234851 -0.7881002 -0.19414987 -0.21384919 0.11255486 0.35556713 -0.073617324 -0.8115027 -0.4143327 0.22194847 -0.2393094 0.499796 -0.16913703 -0.19459754 0.8597631 -0.7537986 -0.07507139 -0.8141576 -0.113755174 -0.7378447 -0.022606216 -0.5774844 0.7549063 -0.12948518 -0.25131032 0.29222527 -0.24526949 0.3205052 -0.3230826 -0.48198515 0.3621192 0.22809216 0.7069826 -0.0729196 -0.43725577 0.30629233 0.4536494 -0.6735068 0.01967247 -0.084601104 0.38451374 0.17218867 0.44786397 -0.14360788 -0.058152884 -0.17267497 -0.12345529 -0.109579355 0.2573053 0.4616249 -0.5926481 0.18011244 -0.61897933 -0.50919443 0.38845587 -0.624561 -0.11755377 -0.48974568 0.19643293 -0.24271071 -0.39704174 0.043906208 0.32512823 0.6601073 -0.44672227 -0.2441626 0.34613705 -0.34400928 0.5408417 -0.1333938 0.15243267 -0.13431083 
66 0.72951335 0.030375665 -0.12187195 1.2652704 0.53695524 0.58363515 -0.43447846 -0.80772215 0.6512411 1.1376661 0.3040643 -0.0055225966 0.065453835 -0.19043288 -0.50250316 0.045910224 -1.320798 0.4670646 0.11576754 -0.89370996 0.82881874 -0.56206393 -0.8641046 -0.8744293 -0.3292919 -0.87506855 -0.6849187 0.09465401 0.49710467 -1.7780741 -0.15258951 -0.2485735 -1.1607007 0.14138551 -0.73713917 0.680243 0.023585774 -0.764308 1.1794486 0.5392433 -0.37827057 1.1766356 0.8458135 -0.7419716 -0.90049464 -0.6911484 -0.52405876 0.11980647 -0.9083562 -1.5173924 -0.07713237 -0.7673997 -0.36408198 -0.16974701 -1.3014982 1.639162 0.469184 -0.08481175 -0.13002314 -0.065116726 -0.04090418 0.33546525 0.5692186 0.5576408 -0.19112301 0.5077609 0.33211008 -0.2019729 -0.83253103 0.033918314 0.43417463 -0.33005324 -1.1931922 0.6422326 -0.66039896 0.021861171 0.06644118 0.9830681 -1.0427396 1.1058549 0.43158534 0.62941146 -0.0740049 -0.21267293 0.5372331 0.20961016 -0.39914712 -0.88189626 -0.9400769 1.1376488 0.048202336 -0.08256851 0.2887858 0.15681748 0.18695484 -1.2936333 0.5429777 0.08278075 -0.10539659 0.84190065 
67 -0.5297139 -0.49679917 0.29953706 -0.17676626 0.12962288 0.18203223 -0.30064455 1.3057617 0.24652515 -1.0871046 0.09361002 0.88134974 0.57078815 0.15978715 0.2154791 0.34283355 0.5062317 0.38754958 -0.8803288 -0.49696317 0.2728928 0.34806046 0.14920875 -0.073124 -0.22350097 -0.44864902 1.2286015 -0.21101448 -0.18206267 -0.8939398 0.17661563 -0.19823891 -0.30110645 0.10390777 0.66373134 0.40147942 0.65851223 -0.43332377 0.069392204 -0.36648485 0.032365568 0.2543228 0.7167192 -0.6378233 0.526009 -2.2538185 0.5202657 1.3102702 -0.42304602 0.7685719 0.08262934 0.027500154 0.4040936 -0.0303933 -0.7911616 -0.21984181 -0.043136798 -0.76631486 -0.27901804 0.5252658 -0.5772926 0.4388408 1.90269 -0.35093376 0.4823238 1.0611595 -0.32598558 1.0982816 0.7481598 -0.7673855 -0.011884699 -0.6379791 -0.58943003 -0.5664407 0.050815295 0.6994314 0.13265459 0.22187227 -0.61526537 1.1843032 -0.15910038 0.103127725 1.228321 0.3368544 -0.4020041 0.07751014 0.06825557 -0.21526724 -0.8706424 0.93611413 -0.20569873 0.13254589 -0.08936748 -0.23031598 -0.84145105 0.74304324 0.29338792 0.81794536 -0.4985478 0.022084797 
68 0.05627861 0.0853476 0.058545507 0.34531063 0.006105081 0.121575266 -0.25265276 -0.58748186 0.0240733 -0.33134738 0.23881309 -0.18447207 -0.16389188 0.2989551 -0.033059847 -0.30124012 -0.144557 0.4089784 -0.120356895 -0.3310799 0.17334853 0.12812531 -0.06061357 -0.22360852 0.02314867 -0.11176221 -0.65529686 0.1254878 -0.38187265 -0.6239972 -0.08449767 0.3324695 -0.07792834 0.1930435 0.25526488 0.23113017 0.065608755 -0.18099101 0.06445661 0.5965872 -0.055111594 0.12011369 -0.15809664 -0.49894282 0.27690732 -0.00025405514 0.2963766 0.09947391 -0.17226745 -0.25189984 0.3963601 0.046220582 -0.009522604 -0.13662851 -0.07665704 -0.37958622 -0.10856276 -0.34378573 0.057835527 -0.059603922 0.18432198 -0.3227769 -0.23108599 -0.2425356 -0.17590801 0.12906411 -0.37735656 -0.02368471 -0.10112844 0.08946468 0.22823142 -0.013140988 -0.5228909 0.28871045 -0.37554684 0.25712305 -0.19587815 -0.12762967 -0.1061769 -0.3314676 -0.19716269 -0.096416265 -0.22281949 -0.16968916 -0.21517187 -0.072598055 -0.013024729 -0.18842083 -0.45073277 -0.3012005 -0.35063723 -0.39450893 0.31046367 0.083693236 0.1190182 0.24520522 -0.30347627 -0.06055921 -0.10014882 0.1854675 
69 0.18799032 0.57410014 0.2271073 0.271846 0.56353503 -0.037654247 -0.45888248 0.06667147 -0.6517774 -0.19225903 0.3506017 -0.048692543 -0.07684304 0.24892804 0.45158243 0.34739324 -0.36447087 0.4577346 -0.27317277 0.38244066 -0.23109388 -0.26526523 0.03433335 0.33364627 -0.016419595 -0.10796463 -0.10972777 0.31908152 0.37670085 0.20798263 -0.16540973 -0.6928112 0.27095854 0.5624306 0.66041446 -0.35620272 0.3855699 0.3255216 -0.31179106 0.88272744 0.6750192 -0.19131838 0.4719511 -0.18280095 0.20273532 -0.2704991 -0.36585632 0.023285082 -0.15160687 0.5152656 0.26785114 -0.44550273 -0.0013140693 0.42069665 -0.31844056 -0.4968157 0.12972634 0.20401159 0.14464982 0.16658345 0.20916964 -0.029955491 0.44940108 0.086013176 0.45211634 0.20791544 0.26689953 -0.11198224 -0.20966175 0.0791463 0.6343888 -0.14097866 0.010204837 -0.27811828 -0.22482142 -0.22130734 0.07997519 -0.004756524 0.19939953 0.8584027 -0.012933983 -0.26974812 -0.18471627 -0.5583293 -0.5167724 0.2113649 0.7228984 -0.31383762 -0.5611656 0.52643746 0.18337482 0.41789111 -0.32508236 0.16830215 -0.20456147 -0.09301641 0.35366687 -0.30798867 0.11717971 0.07687806 
70 -0.58305824 -0.1387478 1.3873676 -0.17501166 0.49363074 -0.22473253 -0.63330334 0.47172168 -0.4304058 -0.58642316 0.79550594 0.18160579 0.21595547 -0.06780294 0.22512884 -0.44608498 0.12545218 -0.4215438 -0.3548745 -0.24488269 0.5222952 -0.058791086 0.3313335 0.87019116 1.0094633 -0.53752124 0.7134327 0.3909126 -0.08969572 0.35411197 0.6140918 -0.47976223 0.093186826 0.698491 0.021327011 -1.0869589 0.8900775 0.0117803775 0.8540442 0.43267265 -0.45639035 0.37185353 -0.19647673 -0.92386067 1.098318 0.12716661 -0.15843908 -0.4450088 -0.37623018 0.5769105 -0.27252513 -0.38570887 0.11524081 0.26940912 -0.48043126 0.006507866 -0.13874654 -0.48588088 -0.10934714 0.23156309 0.6722734 0.57306105 -0.037292954 0.40996325 0.012378918 1.0704802 0.4016778 0.509185 -0.50044984 -0.89580196 0.41510537 -0.08267679 0.29154047 -0.4274157 -0.3607264 -0.42472744 0.43729472 0.7414713 -1.0619909 0.518622 -0.24014331 0.12375038 0.981833 -0.6739089 0.75169736 -0.37476775 0.10647622 0.15574032 -0.31557688 0.1962928 -0.8387546 -0.7194713 0.010034841 -0.49346033 0.7706221 0.07677016 -0.46458545 -0.6222965 -0.49317273 0.49545327 
71 -0.2617684 0.26059502 0.5771779 0.6154508 0.036878306 0.17246479 -0.09228719 -0.4519135 0.06414455 -0.5332099 0.56022626 -0.05666993 0.032442786 0.39443135 0.34131342 -1.3522741 -0.5939137 0.36810413 -0.15731026 -0.3799999 0.35768244 0.26935056 -0.8237685 0.3880898 0.4987912 0.0941671 -0.38055226 -0.43308964 0.3200166 -1.0521971 -0.23950493 0.13060637 0.28866696 0.13970843 0.40990436 1.0794638 -0.37912464 0.43296897 -0.013329644 0.4897473 0.085620716 -0.12501554 -0.22470328 -0.54949445 0.5036567 0.23579264 0.18563901 -0.2804943 -0.54619205 0.027756978 -0.28662834 -0.43069458 0.99874425 -0.34313515 -0.4177217 -0.32640174 -0.26129735 -0.2859431 0.42013243 -0.21564072 -0.3727011 -0.5367257 -0.46543697 0.13572332 -0.2421768 0.35347268 -0.28653055 -0.20865527 0.064663656 0.8292942 -0.40699485 0.06302687 -0.6349493 0.25244695 -0.046033755 0.052863136 -0.14692129 0.321167 -0.7057987 -0.08296603 -0.19951333 -0.2669712 0.0045886864 0.11150709 -0.3955516 0.043061133 0.5613743 0.120707326 -0.40191945 0.0055590197 -0.70564145 -0.17023017 0.02085642 0.21747515 -0.5211673 0.5477499 -0.47778806 -0.38576007 -0.35752973 0.1620874 
72 0.21607468 -0.25177082 -0.03520649 0.2167113 0.10558826 0.15894462 -0.52622366 -0.40822938 -0.3528912 -0.17408696 0.17507197 0.2289578 -0.01099718 -0.3545491 0.23883192 -0.18962559 0.2817314 0.09345558 -0.11907267 -0.53417 0.3421929 0.13356991 -0.106617525 -0.1604798 -0.4210732 -0.11818614 -0.068698995 0.35616723 0.10969576 -0.20400776 0.11251092 0.06466738 -0.118376665 0.3417699 -0.2975488 -0.06457829 -0.20553195 0.12984645 0.21110475 0.29234284 0.1455854 0.1235457 0.3808073 -0.77384317 -0.018431276 -0.5187509 -0.013240369 0.11307431 0.21116495 -0.46368682 0.925843 -0.41475615 0.09033232 0.00087965815 -0.019818759 0.2077425 0.19730555 -0.34494725 -0.088199295 -0.27528068 0.018524313 -0.015363057 0.25110114 0.16808209 -0.10998939 0.23132132 0.11531799 -0.3945447 -0.23959999 0.23779158 0.034152806 -0.19558242 0.014367555 0.07290224 -0.44574746 0.1869656 -0.14241949 -0.14582679 0.14019942 -0.27847135 -0.16322367 0.5034642 0.012500192 -0.006671818 -0.43470612 -0.060988262 0.1625696 -0.5123158 -0.60195005 -0.62384486 -0.4131508 -0.5442678 0.18857795 0.3823221 -0.100768805 0.001067584 -0.339444 0.16454168 0.07498888 0.19936791 
73 -0.36755082 -0.3372454 0.380727 0.332112 0.42597294 0.057214558 -0.6247647 -0.19929574 -0.5473082 -0.07406433 0.19478114 0.24504952 0.17112774 -0.36416432 -0.2219502 0.10441233 0.32272673 -0.37036458 -0.16930443 -0.43458328 -0.30083296 0.18795548 0.45652375 0.059932053 -0.10877687 0.043577567 0.5587903 0.3549785 -0.40939787 -0.09827632 -0.46667603 -0.40252906 -0.26662305 -0.10393687 0.3214536 0.4938679 0.5019268 -0.1605808 0.16214065 0.61758703 -0.30472106 -0.5527742 0.30568945 -0.46580276 -0.1251554 -0.55154264 0.36020318 -0.20950581 0.3246761 -0.58662933 0.13067482 -0.36958945 0.09373856 0.0170774 0.25095195 0.31948385 0.27647075 0.10336023 -0.21561815 -0.008736983 0.92290205 -0.680798 0.9064114 -0.14755112 0.24837466 0.5671938 -0.18858209 0.21114603 -0.52884555 0.53629076 0.8344398 -0.37284285 0.100823775 0.085496664 -0.07311335 -0.021278571 0.0065045236 -0.5176125 0.16049139 -0.24878237 0.0959898 0.031402353 -0.16240157 0.3947932 -0.39315075 -0.0016539603 0.018550975 -0.40015918 0.049724746 -0.46859172 -0.22386976 -0.23163477 0.2908304 0.71152717 -0.118852764 0.22995135 0.15269358 -0.2700789 0.16629398 -0.2263184 
74 -0.32519364 0.52237093 0.6698022 0.3069611 0.88595325 0.14834654 -0.48134077 0.20331413 -0.020021666 0.3975858 0.36177453 0.35245562 -0.21186635 0.15722223 0.0027337798 -0.26709038 0.12524611 -0.034908343 -0.14693394 0.3783664 -0.06575462 0.3179439 -0.0077491757 -0.9184612 -0.41971424 0.30790704 0.019128975 -0.5121049 0.06774207 -0.75219375 0.2230506 -0.3374244 0.16301589 -0.025964066 0.59819376 0.05139777 -0.3592916 0.4121595 0.016196625 0.5602324 0.3616218 -0.03265676 0.95375496 -0.76041996 -0.2511742 -0.50142604 -0.29764548 -0.56324404 0.2933949 -0.0875937 0.38854048 0.14370218 -0.014869891 0.5501875 -0.45801127 0.39518774 -0.32086423 0.080057316 -0.25544068 0.49950832 0.4802523 0.023294969 -0.40926874 0.5251121 0.23296256 -0.12447009 -0.24545361 -0.1041859 -0.25108507 -0.43743777 0.108595036 -0.4469621 -0.27635717 0.09705314 0.060511418 -0.13839519 0.40944052 0.64850503 0.41398853 0.24740155 -0.15841667 -0.15954371 0.016200196 -0.21036679 0.23241983 -0.16654836 0.75321066 0.2809764 -0.34850332 0.35317042 0.20311359 0.21010673 -0.40622425 -0.098626815 0.16449809 -0.31198716 -0.065672696 -0.50140345 -0.5598645 -0.50593805 
75 0.3268534 1.3613586 0.849858 -0.9721818 -0.8046265 -0.00325781 -0.94962716 -0.98265994 0.21880311 0.2229957 0.6306305 -0.32788655 0.50936544 -0.27353808 0.50092113 -1.3661658 -0.050647307 -1.3486525 -0.3444184 -0.19157688 0.10374418 -0.07942413 0.914317 -0.55922097 0.21081617 -0.59032124 1.3551975 0.540781 0.38245115 -0.4193234 -0.70172954 1.1142181 0.6189008 0.18833254 0.6399812 0.27730438 -0.3758869 0.785164 0.15853143 0.11772573 0.3734678 -0.52696043 0.96143025 -0.94787896 0.5949704 0.97286236 -0.6020267 0.698106 -0.22708222 0.34841347 1.0110911 1.0605046 -0.16101572 -0.12489356 -0.026201403 -0.085718825 -0.5758611 0.50185156 0.3743666 -0.48886594 0.47071812 -1.1322292 0.36705104 -0.050062876 0.009025506 -0.5605064 -0.25226587 1.3759594 -1.178707 0.19798942 0.13628523 0.5952632 -0.67574096 0.5815478 -0.08991854 0.11643292 -1.5459938 0.20949706 -0.58141387 -0.019936243 0.83808714 -0.036210075 1.1017755 -0.39635575 -0.30433112 -0.3532441 1.1755208 0.041340187 -0.3026612 0.034153026 -0.15570171 -0.45699227 0.15367977 -0.25507513 -0.34295803 0.3598822 0.4656277 -0.37268645 -0.043204043 -0.71454376 
76 -0.48257256 0.5685401 0.62564486 0.028074902 0.101741254 0.05897694 -0.16294517 -0.18171899 -0.0030059097 -0.3868311 -0.24383698 -0.3814186 -1.0572017 0.4391847 0.08912209 -0.24811745 0.2516385 0.65242845 -0.54649884 -0.4831991 0.032736942 0.30558833 0.7678598 0.046397556 0.2108011 -0.20622933 0.40967274 -0.7708285 -0.0011510977 -0.26923445 -0.20901269 -0.7839801 -0.22433802 -0.21787685 0.15170015 0.4581171 0.5138575 0.47739398 -0.41097254 -0.47711566 -0.11049085 -0.08698039 0.124238536 -0.024956193 0.09459748 -0.13775274 0.027926024 -0.226857 -0.3675789 -0.21179205 0.80273134 -0.013555637 -0.029431116 -0.3158914 -0.3524865 -0.11668973 -0.53049624 -0.34056064 -0.016073788 0.12766726 -0.009706789 0.18606363 0.44689897 -0.017710637 -0.19505687 0.2236501 0.035445485 -0.69410753 -0.020303706 -0.36362436 -0.10302847 -0.0256253 0.4069136 0.019120555 0.12437073 0.30820152 0.5805173 0.05879494 0.18778057 0.022348667 -0.06128664 0.28357223 0.054586235 -0.29112735 -0.40797436 -0.6182658 0.44429612 0.017463187 -0.44976744 0.09789439 0.043676697 -0.3741305 -0.04167626 0.39694163 -0.55237836 0.40440005 0.15697256 -0.4778487 0.58930695 0.1520005 
77 -0.70918655 -0.5244942 1.2122598 0.657306 -0.31663328 0.24678613 -0.48189145 -0.70750535 -0.6613143 0.13024893 -0.070898294 0.009738887 -0.11640397 0.8831259 -0.01908019 -0.6526056 -0.31451413 -0.18749389 0.19855006 0.1298193 -0.21043581 0.7194698 0.5662611 0.55298716 -0.22558743 -0.68546844 0.20054874 0.2774453 0.7160232 -0.59892386 0.38929638 -0.01268699 -0.6368689 0.5847859 0.12928909 0.3905313 0.6995411 -0.24278264 0.40890935 0.68364483 0.16142069 -0.8504823 -0.2290878 -0.87274206 0.29727483 -0.7560665 0.36895466 0.61943126 -0.08739406 0.7039329 0.94025964 0.6639791 -0.15088321 -0.51656085 -1.1404246 0.2979869 1.4115344 -0.8376234 0.04255214 -0.42246458 0.43647143 0.4813825 -0.084796146 -0.84360933 0.63265365 -0.8754408 0.7746914 0.19421376 0.124288715 -0.48994133 -0.67978877 -0.6028953 -0.12658945 -0.36285135 -0.513265 -0.60051286 0.34193084 0.29166532 -0.77330166 -0.02954255 0.8213505 0.7040463 0.90759325 0.7206991 -1.3531508 0.40852293 0.23239024 0.8100117 -0.66520494 -0.38165277 0.4796738 0.4657172 0.25207406 -0.30236998 -0.31995258 -0.82857424 0.09784905 0.27474308 0.07215255 -0.68145066 
78 -0.056464233 0.43078634 0.6053015 -0.43135223 -0.21553515 0.30550137 0.07083149 -0.6345552 -0.6225123 -0.06674613 -0.6732898 -0.63252854 -0.08061928 -0.535057 -0.50003505 -0.6199648 -0.18503328 0.12381409 -0.6117584 -0.33459225 0.6228342 -0.10252176 -0.4031793 -0.13885286 0.32483694 0.28082857 0.4893524 0.11161863 0.4334936 -1.5206057 0.58776677 -0.5631391 -0.17658558 0.8430397 0.22327282 -0.22255683 0.4902705 0.06319821 0.0111004915 0.18146157 -0.68104124 -0.52168715 -0.005219601 -1.2184061 0.20862328 0.529135 -0.7565693 0.059572265 -0.03654953 -0.03843604 -0.2068756 0.34326455 0.19214149 -0.7769423 -0.35291645 0.042571563 -0.058771938 0.16408281 0.32057652 0.14493914 0.17710853 -0.93551487 0.83037096 0.68038857 -0.39853218 0.014816688 -0.28812045 1.5590249 0.30280006 -0.24935222 0.09243274 0.21702023 -0.011368689 0.67772007 -1.116096 -0.870075 -0.67585987 0.3486115 -0.31073543 0.43343812 0.22797509 -0.6896474 -0.36012354 0.46194175 -0.76682943 -0.81882334 0.22639874 0.26864728 -0.63816434 -0.44639772 1.013363 0.8043261 -0.13443263 0.6725305 0.2019897 -0.07750369 0.12641636 0.9312161 -0.34108388 -0.18276355 
79 -0.13665238 0.6760941 0.37749383 1.0329957 -0.052938055 -0.3791663 -0.7652008 -0.27563056 -0.1831063 -0.9266388 0.17576236 0.6153346 -0.48029223 0.7058247 -0.018600998 -0.32692024 -0.38160214 0.82361346 -0.8576189 -0.17159192 1.1236064 0.7011163 0.17183514 1.2462214 0.05934442 0.18418455 0.3794917 -0.46569172 0.24986579 -0.30579567 0.16422093 -0.48859447 -0.9567582 -0.074858144 0.57217056 -0.24971019 -0.70951873 -0.16482927 0.33918726 1.2275525 -0.6253943 -0.14490005 -0.83606625 0.59613043 0.44978532 -0.54026186 0.4942828 0.3324363 -0.15619949 -0.34380135 -0.31898868 -0.5224372 -0.39660802 -0.33039257 -0.8416633 0.04695201 -1.1039276 0.56655174 -0.3998222 -0.059362877 -0.44599682 0.3661746 -0.84481215 0.27580962 -0.44620237 -0.73797685 0.38492075 0.17378066 -0.56889 0.13116115 0.25250334 -0.18198887 -0.6298402 0.24803917 0.31385678 0.22025852 -0.3526087 1.044179 -0.52050716 -0.20007783 0.43853286 -0.37248334 0.3545786 -0.31144202 -0.12878221 1.248254 0.32111531 -0.20250827 -0.18620984 -0.20028749 -0.062190883 0.65439063 0.11564035 0.20418358 -0.3173022 0.040678497 0.059044268 0.18578571 -0.056854095 0.11202103 
80 0.6013387 -0.3253716 1.7262378 0.61676097 -0.91471326 -0.19839802 -0.46896845 -0.6430285 0.28509396 -0.43169212 0.50615275 -0.035451144 -0.10533871 -0.28489438 0.49663576 -0.1224966 -1.0492969 0.33452368 -0.41412362 -0.4926785 -0.98581946 0.8002213 0.13396178 0.035794295 0.09619238 0.4414877 0.0028488259 0.75898963 0.68484735 -0.32992065 0.109795466 -0.44190177 -0.31438002 0.74203306 -0.24659958 -0.46381536 -0.84187245 0.16278122 -0.3589172 -1.1718924 0.6236108 -0.99884576 0.4463169 -0.5928345 -0.108675025 -0.21270676 -0.11866994 0.016211718 -1.1153029 -0.4769426 0.06937784 0.009828387 0.08914693 0.37564468 -0.34277594 0.6716564 -0.13649194 0.052783612 -0.5401659 -0.24212997 0.43959606 -0.27931806 -0.14208794 -0.8644007 0.26499844 -0.09359534 -0.2954907 0.02891577 -0.28636095 -0.23395668 -0.2504883 -0.14372541 -0.1391704 0.49963766 -0.25075352 0.4516299 -0.79471844 0.22971892 -0.31986782 0.70254415 0.03531511 -0.68102384 0.4721464 0.2575083 0.3402778 -0.29536974 0.11926723 0.4726866 -1.314066 -0.028858274 0.36750105 0.3776246 -0.35985008 0.92215043 0.7075497 -0.7684989 -0.16590503 -0.6247293 -0.2261792 0.3223061 
81 0.37311628 0.21856984 1.8920991 -0.59330374 -0.8504321 -0.6128185 -0.69166744 0.48072433 1.0961382 -0.4958701 0.2735176 -0.47965813 0.121888444 0.07617816 0.44691733 0.24445124 -0.74210423 -0.339003 0.2695621 -0.47157878 -0.5577807 -0.32555133 0.077391505 0.15026169 -0.0367685 0.46722966 0.17607556 0.630609 0.42177817 -0.17968427 -0.22075464 -0.34570974 0.07302406 0.08276272 0.23886023 0.10466299 -0.44673258 0.6695276 -0.78865606 -0.42108688 -0.26024592 -0.6026582 0.24087001 -0.6064491 -0.19565581 -0.3569296 -0.49014157 0.04265224 -0.811945 -0.015980197 0.49351096 -0.61745435 0.084398136 0.0035798103 0.29544446 1.0287635 0.840489 -0.2759046 -0.68474656 0.18593019 0.61717385 0.14901972 0.05958453 -0.5784531 0.8297855 -0.21987809 -0.32742083 -0.35878497 -0.8334001 -0.1848607 -0.2796058 0.34158117 -1.0989383 0.30860594 -0.10504434 -0.22484374 0.32697785 -0.2633729 -0.18331973 0.21344578 -0.0012638016 -1.3138798 -0.55305135 -0.16125889 0.2553796 -0.7039694 0.42767555 -0.0078584105 -0.9392091 -0.44843262 0.85280836 -0.097652175 -0.15307614 0.7891326 0.14199308 -0.92066187 -0.80690885 -0.5228241 0.0493546 0.3143615 
82 -0.7025944 0.27408284 -0.1400455 -0.1921433 -0.4511657 -0.29727882 -1.3715858 -0.24458122 -0.5143865 -0.15503089 0.5373699 -0.87101954 0.22570232 1.1668342 -0.32695168 -1.1170223 0.13257064 -0.15241203 -0.3134784 0.60052633 0.23558943 -0.09443204 0.80678034 0.12140605 0.17568211 0.51629555 1.461223 0.45138445 -0.5693112 -0.47001073 -0.76461595 -0.43977478 -0.053380314 0.8311603 0.041428186 0.14977315 -0.36681458 -1.0371659 0.6555678 -0.1750958 -0.80419344 -0.118498296 -0.23449439 0.1901044 -0.8146435 -0.13276953 -0.3611286 0.14852259 -0.14453179 0.10234187 0.24863227 -1.0673453 0.030021982 -0.23466384 -0.61232543 0.46043906 -0.61001843 0.13470325 -0.58293545 -0.38485432 -0.0807832 -0.89195126 0.77168083 0.8635806 -0.4243558 -0.19532442 -0.46643224 -0.35965315 0.26599985 -0.350264 -0.72492504 0.11048127 0.25114003 0.54020035 0.5739699 0.33561188 -0.0790847 0.28964084 -0.025719848 0.4772858 0.54530215 -0.54600716 0.9516876 -0.56611204 -0.12007277 0.8260759 0.20673515 -0.032083746 -0.15818496 0.13218431 0.16626146 0.5451072 0.43128857 0.21390195 -0.41412863 -0.097348385 0.10779969 0.12448285 -0.57539093 0.4626186 
83 -0.13714088 -0.6686614 0.68530667 0.17827207 -0.31704897 -0.11200075 -0.9837535 -0.4595348 -0.5373952 -0.63562775 0.16024469 0.3969142 -0.23851135 -0.6043795 -0.0019507279 -0.30117488 0.1183152 -0.5089105 -0.06736385 -0.7651021 0.08021485 0.44795635 -0.35088643 -0.4916386 -0.6622153 0.30530778 0.4828508 0.44635782 0.31051925 0.36536735 0.20330867 0.032184877 0.31279162 0.7017125 -0.1360835 0.25315452 0.18868025 -0.050696112 0.5820887 -0.2166159 -0.46436182 -1.2371025 0.10790582 -0.7435231 0.19914414 0.17184845 -0.14673997 -0.5842536 0.63985294 -1.5557362 0.6730378 -0.5113035 0.8504075 -0.16943456 -0.29997563 0.7086918 0.92169154 -0.09090756 0.036714345 -0.20898078 0.5067551 -0.058886714 0.80673754 0.2708541 0.59444094 0.93506426 -0.07395928 -0.60892206 -1.2285806 -0.11342185 0.693396 -0.7544023 0.56552 0.24467383 -0.5232133 -0.2895673 -0.27239192 0.085962415 0.5834028 0.21639554 -0.04596273 0.30755237 -0.043697093 0.41192484 0.06228987 0.28955454 0.86523277 -0.9385088 -1.1162951 -0.58314073 -0.15144679 -0.076079346 0.21505003 0.5630619 -0.05545422 0.5033371 -0.38808802 0.42002633 0.58759964 -0.07890573 
84 0.35551316 1.3702122 0.7818454 -1.0909038 -0.7520931 0.061138757 -0.8938177 -0.90672255 0.17409453 0.490666 0.6006059 -0.3286106 0.65607727 -0.3383345 0.62560236 -1.4252572 -0.23480436 -1.2228571 -0.36471376 -0.1789333 0.21162212 -0.096467994 1.0024548 -0.5426567 0.29165918 -0.83723074 1.3891639 0.4271545 0.5509726 -0.40990087 -0.7995644 1.1472429 0.44997227 0.17985417 0.6210777 0.2072277 -0.49424267 0.7636472 0.23281072 0.052320182 0.4397072 -0.39444792 1.1971613 -1.120785 0.54263306 0.98655653 -0.44121873 0.72654873 -0.23983245 0.37487188 1.0646454 0.88830525 -0.15200359 -0.11659311 0.05920693 -0.18076172 -0.75902814 0.60028315 0.30768347 -0.45224428 0.47379056 -1.0834309 0.24302325 -0.12995185 -0.18047276 -0.5416172 -0.2971286 1.3019103 -1.2291697 0.3528069 0.13475877 0.68136644 -0.8699718 0.47379357 -0.10820837 0.19775362 -1.4114797 0.3342797 -0.87473387 -0.15973264 0.8391808 -0.010891587 0.97647536 -0.15784658 -0.19961634 -0.2958314 1.0430396 -0.16889766 -0.2264621 0.1092972 -0.14675872 -0.38985154 0.20303623 -0.22301887 -0.29172277 0.3110338 0.43640175 -0.47068176 0.04407291 -0.6883853 
85 -0.06367231 0.6753094 0.7012685 -0.8520068 -0.07968625 0.46560264 -0.42170227 0.4756428 -0.123197354 0.030194879 0.016943732 -0.0299795 0.14956166 0.5189626 0.14078665 -1.5424736 -0.78343 -0.4735388 -1.3784858 -0.037244868 -0.7404392 0.6706007 0.60378206 0.6191736 0.76544136 0.58582145 1.2653836 0.3429956 0.43587232 -0.7579531 -0.21140371 0.38714767 -0.50102514 0.9701512 -0.67960083 0.39548832 0.8482815 0.052500766 0.15777816 -0.3509818 -0.38668475 0.009713601 0.55487734 -0.43466467 0.6386138 -0.59701246 0.7129087 -0.833519 -0.5573549 -0.43147954 0.3583109 -0.16272564 0.7672486 -1.2659899 -1.0361377 -0.42884892 0.7926686 -0.4679219 0.47712535 -0.61301917 -0.06821841 -1.5996051 -0.36522886 -0.6727994 0.50510913 -0.7199933 -0.4133658 0.11807561 -0.16624705 0.8130641 -0.17132658 -0.6336633 0.17673117 0.21311654 0.24021587 -0.86264145 -0.11345322 0.5072335 0.3427648 -0.2597242 0.07694008 0.20663351 -0.3816601 -1.0168965 0.46090865 -0.16574098 0.36820695 1.222236 -0.8397004 -0.013200013 0.05736038 0.28379127 0.13993016 0.3986353 -1.3162951 -0.848227 -0.015190598 -0.060574904 0.54340583 -0.884266 
86 -0.061195143 0.40950453 0.4625139 0.08263095 0.121251054 0.2888484 -0.6097272 -0.005428698 -0.58733404 0.73113555 -0.17331687 -0.5264595 0.19854152 -0.51283854 0.15061474 0.10228638 0.42728695 0.72271746 -0.48296365 0.3435635 -0.28141356 0.40479362 -0.17692259 -0.20276816 0.023279563 0.057758797 -0.29244366 -0.041076373 -0.16939043 -0.38271022 0.21878284 -0.15590411 -0.25887764 0.55456626 0.034567136 0.56405675 -0.2985875 -0.3489201 0.16748466 0.10277229 0.21518962 0.071274914 0.15198083 -0.40395755 -0.12838529 0.08815041 0.28552064 0.022502545 -0.06705518 0.2842716 0.31758064 -0.63236225 0.33650437 -0.47432375 -0.29597276 0.53737533 -0.48044375 -0.077636935 -0.21607986 0.13126166 0.2806716 0.9842295 -0.087799415 0.0105038835 -0.34370458 -0.24485737 0.12549394 0.39131847 -0.4486703 0.29025882 -0.029834047 -0.52352655 -0.356552 0.099662624 0.6762504 0.11329 0.05497005 0.6045039 -0.24614407 0.41981232 0.2467216 -0.22362065 -0.078579314 0.002482843 0.09669463 -0.5168476 0.34889433 0.30953875 -0.11534582 -0.37449878 -0.03295992 0.30002725 -0.30671543 -0.47759074 0.10111829 -0.075536765 0.026405249 0.30671528 -0.25294164 0.45475867 
87 0.008596374 0.16339245 0.1733143 0.81705797 -0.6644996 0.19788541 0.28117722 0.83427876 0.2578831 -0.58355904 0.43114954 -0.79288685 0.11965389 0.14252923 0.58634466 0.75193274 0.6420674 0.018199913 -0.5758939 -0.20011865 0.25809872 0.085004814 0.33303067 0.78691995 0.13631834 0.127741 0.9303774 0.019460302 -0.107505456 0.43602332 0.124613866 -0.9952688 0.19711398 0.53694373 0.047523636 -0.19466087 0.1701406 0.25075778 0.050172888 0.60058016 0.29712287 -0.21193019 0.15302442 -0.50411165 -0.1304001 0.89097327 -0.47944474 0.6261908 0.8612338 0.34150386 0.60736746 -0.081014514 -0.009875639 0.121947095 -1.5792395 0.2973291 0.19861677 -0.17177382 0.3381622 -0.112088226 -0.04365634 0.20531595 -0.06401222 0.4591094 -0.29767463 1.1977081 -0.5444534 -0.8342564 -0.032635946 -0.9549262 0.38198808 -0.3769007 0.06332875 1.3778268 0.533835 -0.15234783 0.9046709 0.052457064 -0.9551542 -0.009785236 -0.023849554 0.04328799 -0.6665738 -0.44702566 0.17473055 0.0005423743 0.9314559 -0.059220035 -0.53215593 0.50428003 -0.0011603361 0.0073956116 1.0892788 0.66504747 0.039062325 -0.87769186 0.07151369 0.63949764 0.917688 0.94058347 
